tree
version=v4
num_class=1
num_tree_per_iteration=1
label_index=0
max_feature_idx=116
objective=binary sigmoid:1
feature_names=Column_0 Column_1 Column_2 Column_3 Column_4 Column_5 Column_6 Column_7 Column_8 Column_9 Column_10 Column_11 Column_12 Column_13 Column_14 Column_15 Column_16 Column_17 Column_18 Column_19 Column_20 Column_21 Column_22 Column_23 Column_24 Column_25 Column_26 Column_27 Column_28 Column_29 Column_30 Column_31 Column_32 Column_33 Column_34 Column_35 Column_36 Column_37 Column_38 Column_39 Column_40 Column_41 Column_42 Column_43 Column_44 Column_45 Column_46 Column_47 Column_48 Column_49 Column_50 Column_51 Column_52 Column_53 Column_54 Column_55 Column_56 Column_57 Column_58 Column_59 Column_60 Column_61 Column_62 Column_63 Column_64 Column_65 Column_66 Column_67 Column_68 Column_69 Column_70 Column_71 Column_72 Column_73 Column_74 Column_75 Column_76 Column_77 Column_78 Column_79 Column_80 Column_81 Column_82 Column_83 Column_84 Column_85 Column_86 Column_87 Column_88 Column_89 Column_90 Column_91 Column_92 Column_93 Column_94 Column_95 Column_96 Column_97 Column_98 Column_99 Column_100 Column_101 Column_102 Column_103 Column_104 Column_105 Column_106 Column_107 Column_108 Column_109 Column_110 Column_111 Column_112 Column_113 Column_114 Column_115 Column_116
feature_infos=[0:1] [0:28707444] [0:21869436] [0:21869436] [0:10768280] [0:2146.82177734375] [0:3380.954345703125] [0:2044.608642578125] none none none [0:69444] [0:119877456] [0:112381680] [0:112381680] [0:82704016] [0:119899880] none [0:5840] [0:2146.82177734375] [0:1448] [0:1646.675537109375] [0:3640706] [0:2000000] none none [0:5] none [0:1] [-12000000:144812496] [-1:119899936] [-1:119877328] [-1:64091128] [-1:64091128] [0:77550384] [-2000000:3000000] [0:1599] none none none [0:45616] [0:119877328] [0:112381880] [0:112381880] [0:82704120] [0:119899880] [0:1] [0:18720] [0:3380.954345703125] [0:1472] [0:2974.245849609375] [0:591667] [0:2000000] [0:93] none [0:119877328] [0:119877328] [0:119877328] [0:36153248] [-1:65535] [-1:65535] [0:1] [0:18720] [0:1959.4166259765625] [0:1306] [0:2604.87744140625] [0:6785387] [0:17] none [0:1] [0:3640706] [0:2800] [0:591667] [1:1736] [0:2800] [1:1736] [0:1] none none none none none none none none none none none none none none none none none none none none none none none none none none none none none none none none none none none none none none none none
tree_sizes=1389 1320 1323 1324 1330 1320 1331 1659 1436 1759 1859 1755 1545 1659 1754 1544 1548 1650 1867 1983 1880 1985 1982 1986 2074 1972 2187 1866 2197 2190 2071 2293 1971 2175 2298 2071 2089 2069 2398 2532 2397 2390 1642 1639 2071 1864 1864 2180 1977 1973 1974 2085 2084 2080 2196 2188 2505 2301 2299 2184 2192 2291 2408 2616 2398 2379 2180 2186 2611 2279 2487 2284 2603 2395 2175 2600 2704 2381 2715 2489 2618 2492 2706 2500 2826 2699 2829 2296 2289 2283 2295 2186 2280 2280 2293 2388 2292 2192 2191 2395 2086 9898 13709 13801 12623 12271 13061 13178 11122 11996 9746 11909 13867 9770 12875 9889 10721 9151 9560 9131 8724 9047 8929 9030 8718 10129 9975 8824 8722 8929 8513 9596 9933 9507 11556 8404 7661 8004 8971 10176 9925 8644 8638 8316 8321 8420 9050 7594 8637 7032 7145 8098 7360 8110 8216 7994 8762 7578 7251 10121 7912 7575 8844 9467 9284 8631 8319 9934 7080 7791 7512 7727 8164 6133 6111 6004 5388 5185 4762 5388 4544 4643 4957 4339 4204 4556 4654 4328 4440 4553 4002 3474 3363 3683 3038 2930 3559 2950 2934 2932 2520 2621 2628 2402 3286 3607 2510 2953 3152 3376 3245 3271 3719 2815 2831 3406 2936 2508 2622 2611 2733 2401 2623 5834 7266 6949 5586 6539 5704 6791 5826 5930 7444 6500 5540 5213 5643 5105 4771 5568 5678 4903 3812 4660 5351 3488 3701 3493 3923 3500 3925 3822 4559 4279 3821 3813 3594 4031 3806 3488 3596 3490 3180 4026 4032 4378 4047 3929 3827 4164 3825 3947 3720 3613 3845 3617 3275 3281 3300 3314 3184 3412 3618 3735 4646 3971 3737 3511 3645 3408 3282 3620 3396 3505 3722 4047 3727 3929 3946 4495 4579 4503 4157 3937 4041 8264 9961 12808 11419 10763 11252 11740 11197 10101 11252 11821 11862 13045 10888 13035 9829 11542 11055 10846 11050 11707 10075 9983 9428 9438 10436 9343 9766 8470 8561 9222 8254 8268 6861 9897 8151 7621 8171 7202 6861 7924 7717 7390 8244 7726 7538 7750 7867 7621 8502 8079 5909 6119 6883 6227 5293 7300 6237 6655 6121 7210 7745 7852 8618 8724 8714 8411 8855 8089 8538 6500 7867 6879 6707 6785 6800 6689 6378 7476 13699 13770 13726 13736 13686 13752 13713 13731 13773 13772 13732 13767 13788 13815 13829 13817 13823 13851 13883 13823 13839 13908 13858 13904 13869 13847 13819 13885 13871 13899 13900 13893 13945 13908 13925 13813 13907 13514 13954 13925 13962 13932 13190 13068 12986 13414 13966 12530 12529 11763 11994 11458 12842 12072 12442 13075 12659 12430 12882 14058 12335 4634 4728 4299 3867 3226 3155 3450 2516 4110 4016 3757 3366 2611 2399 2633 2401 2409 2191 2305 2621 2391 2622 2513 2610 2620 2407 2833 2501 2946 2639 2633 2635 2749 2727 2295 2854 2082 2861 1974 2396 1977 2533 2310 2318 2082 2199 2190 2094 2198 1981 2529 1760 1647 1871 1993 1867 1770 1765 1982 1885 1989 1659 1994 1995 1981 2091 1981 1986 2096 1875 1977 7411 8349 9068 10482 10393 11366 11342 13657 12295 13851 12412 13813 13795 13775 13802 13583 13803 13802 13789 13814 13791 13810 12932 13796 13806 12632 13489 12754 13847 13571 13863 13200 13104 11481 13894 11706 13800 13823 13190 13855 13798 13832 13785 13785 13757 13792 13786 13781 13735 13808 13867 13819 13816 13813 13808 13830 13065 13786 11529 12520 13505

Tree=0
num_leaves=12
num_cat=0
split_feature=47 51 59 32 59 40 43 14 33 63 32
split_gain=144629 115093 614.975 468.473 140.014 66.1393 446.898 27.9903 26.775 21.5018 2.97248
threshold=21.000000000000004 13.000000000000002 245.50000000000003 1013.4038391113282 60.500000000000007 68.000000000000014 293.50000000000006 15550.500000000002 119.50000000000001 12.324999809265138 5147629.7500000009
decision_type=2 2 2 2 2 2 2 2 2 2 2
left_child=1 9 3 4 -3 6 -5 -7 -8 10 -1
right_child=-2 2 -4 5 -6 7 8 -9 -10 -11 -12
leaf_value=0.19872175876970427 0.19822070360414965 0.20664692535868487 0.20132478815798532 0.21512897022390265 0.351022757255049 0.4032478196930504 0.40301209664040388 0.35010769582510332 0.34814855846543502 0.24145255517363173 0.2149591190980944
leaf_weight=8823.2480793893337 22176.803460091352 36.791322618722916 37.154924064874649 35.576462358236313 29.552449256181717 30793.971489578485 324.77980720996857 26.444704324007034 25.469389587640762 36.436287492513657 80.740294277667999
leaf_count=26383 66253 111 111 109 113 126289 1332 101 97 117 248
internal_value=0.300747 0.357237 0.402417 0.40266 0.270511 0.402942 0.381938 0.403203 0.399123 0.199023 0.198858
internal_weight=62427 40250.2 31309.7 31272.6 66.3438 31206.2 385.826 30820.4 350.249 8940.42 8903.99
internal_count=221264 155011 128263 128152 224 127928 1538 126390 1429 26748 26631
is_linear=0
shrinkage=1


Tree=1
num_leaves=11
num_cat=0
split_feature=47 51 60 30 43 63 51 40 32 41
split_gain=129008 104256 1054.84 221.143 95.5319 18.506 17.7407 166.039 2.46159 1.31501
threshold=21.000000000000004 13.000000000000002 255.50000000000003 2743.5000000000005 36566.500000000007 12.324999809265138 22.000000000000004 54.000000000000007 5147629.7500000009 12050000.000000002
decision_type=2 2 2 2 2 2 2 2 2 2
left_child=1 5 -3 -4 6 8 7 -5 -1 -10
right_child=-2 2 3 4 -6 -7 -8 -9 9 -11
leaf_value=-0.11049418521233717 -0.11095664773750465 -0.10376329377710072 -0.036586290742094497 0.08319061175916069 -0.011226153450465855 -0.070987298685134037 0.083390684326015388 -0.026925050007003733 -0.080018765619702559 -0.10461120399280886
leaf_weight=8957.8367410600185 22516.201081931591 74.96822914481163 38.078092128038406 313.4220587015152 26.554702758789062 36.819246679544449 30344.829011440277 37.942782998085022 33.780361264944077 48.054490014910698
leaf_count=26383 66253 226 129 1305 95 117 126377 131 105 143
internal_value=-0.0152634 0.0387226 0.0825652 0.0830227 0.0831721 -0.110218 0.0832541 0.0712569 -0.110369 -0.0955483
internal_weight=62428.5 39912.3 30835.8 30760.8 30722.7 9076.49 30696.2 351.365 9039.67 81.8349
internal_count=221264 155011 128263 128037 127908 26748 127813 1436 26631 248
is_linear=0
shrinkage=0.05


Tree=2
num_leaves=11
num_cat=0
split_feature=47 51 60 30 14 51 40 63 42 42
split_gain=115896 94915.2 967.307 205.311 74.063 18.1266 168.694 16.4121 2.27041 0.924754
threshold=21.000000000000004 13.000000000000002 255.50000000000003 2743.5000000000005 20959.000000000004 22.000000000000004 54.000000000000007 12.324999809265138 5133276.2500000009 10150000.000000002
decision_type=2 2 2 2 2 2 2 2 2 2
left_child=1 7 -3 -4 5 6 -5 8 -1 -10
right_child=-2 2 3 4 -6 -7 -8 -9 9 -11
leaf_value=-0.10412239571497227 -0.10455463300084566 -0.097613958633673115 -0.034650898794095074 0.080662031527181682 -0.0064359339509976743 0.080714484925344734 -0.028034303973416039 -0.067041311030378248 -0.075828797430501291 -0.098058085649715507
leaf_weight=9025.8641874939203 22694.867054015398 75.746980249881744 38.24597892165184 321.26492601633072 24.335080206394196 29783.36006706953 39.645579293370247 37.088407695293427 33.803525537252426 51.796865656971931
leaf_count=26374 66253 226 129 1361 88 126323 136 117 104 153
internal_value=-0.0145405 0.0372691 0.0799069 0.0803553 0.0805023 0.0805727 0.0686774 -0.10386 -0.104002 -0.0902567
internal_weight=62126 39431.2 30282.6 30206.9 30168.6 30144.3 360.911 9148.55 9111.46 85.6004
internal_count=221264 155011 128263 128037 127908 127820 1497 26748 26631 257
is_linear=0
shrinkage=0.05


Tree=3
num_leaves=11
num_cat=0
split_feature=47 51 60 52 43 51 40 5 32 36
split_gain=104735 86778 890.038 191.641 87.663 18.4299 156.141 13.9818 2.14062 6.99298
threshold=21.000000000000004 13.000000000000002 255.50000000000003 1863.065124511719 36566.500000000007 22.000000000000004 54.000000000000007 23.321428298950199 5147629.7500000009 1.0000000180025095e-35
decision_type=2 2 2 2 2 2 2 2 2 2
left_child=1 7 -3 4 5 6 -4 8 -1 -10
right_child=-2 2 3 -5 -6 -7 -8 -9 9 -11
leaf_value=-0.098722044770573669 -0.099138544387986693 -0.092339723600022502 0.078140682907301209 -0.039161161711701697 -0.01254405490810942 0.07833584112472447 -0.02690619111001781 -0.065257587117882099 -0.099413441893343446 -0.065063566331962946
leaf_weight=9043.9347640573978 22736.40051984787 76.115602910518646 301.47749437391758 34.319753855466843 26.384213283658028 29186.199164032936 39.563728258013725 39.318740874528885 46.317284137010574 36.443694353103638
leaf_count=26377 66253 226 1305 114 95 126388 135 123 135 113
internal_value=-0.0139158 0.0359865 0.0775357 0.0779758 0.0781131 0.0781946 0.0659113 -0.0984733 -0.0986092 -0.0852449
internal_weight=61566.5 38830.1 29664.1 29587.9 29553.6 29527.2 341.041 9166.01 9126.7 82.761
internal_count=221264 155011 128263 128037 127923 127828 1440 26748 26625 248
is_linear=0
shrinkage=0.05


Tree=4
num_leaves=11
num_cat=0
split_feature=47 51 60 30 43 51 40 63 32 36
split_gain=95126.5 79625.7 821.341 179.113 82.5705 15.3981 133.58 13.9605 2.0388 6.3437
threshold=21.000000000000004 13.000000000000002 255.50000000000003 2743.5000000000005 36566.500000000007 22.000000000000004 54.000000000000007 12.324999809265138 5147629.7500000009 1.0000000180025095e-35
decision_type=2 2 2 2 2 2 2 2 2 2
left_child=1 7 -3 -4 5 6 -5 8 -1 -10
right_child=-2 2 3 4 -6 -7 -8 -9 9 -11
leaf_value=-0.094094900032150597 -0.094500489534008594 -0.087760720529383718 -0.031292933183719195 0.076007281071555743 -0.011915239854745859 0.076198232648594585 -0.022716070950624528 -0.060152761200007281 -0.094636260859657872 -0.061916840676259202
leaf_weight=9016.9425005316734 22661.215765297413 76.132959917187691 38.461742848157883 294.64333654940128 26.439107313752174 28518.586075916886 38.303228154778481 37.345014125108719 46.273220956325531 36.431837111711502
leaf_count=26383 66253 226 129 1305 95 126377 131 117 135 113
internal_value=-0.0133709 0.0348473 0.0754095 0.0758421 0.0759859 0.0760668 0.0646158 -0.0938544 -0.093986 -0.0811351
internal_weight=60790.8 38129.6 28992.6 28916.4 28878 28851.5 332.947 9136.99 9099.65 82.7051
internal_count=221264 155011 128263 128037 127908 127813 1436 26748 26631 248
is_linear=0
shrinkage=0.05


Tree=5
num_leaves=11
num_cat=0
split_feature=47 51 60 52 43 51 40 63 32 41
split_gain=86772.3 73291.9 759.889 168.179 78.027 17.0773 136.86 13.1776 2.00459 2.26126
threshold=21.000000000000004 13.000000000000002 255.50000000000003 1863.065124511719 36566.500000000007 22.000000000000004 54.000000000000007 12.324999809265138 5147629.7500000009 12050000.000000002
decision_type=2 2 2 2 2 2 2 2 2 2
left_child=1 7 -3 4 5 6 -4 8 -1 -10
right_child=-2 2 3 -5 -6 -7 -8 -9 9 -11
leaf_value=-0.090087455683491927 -0.09048753125074871 -0.083742929853693193 0.07408513477827415 -0.035547727202241301 -0.011319847973256461 0.074275421302944553 -0.024352808809107188 -0.057209727816003787 -0.062658842069500592 -0.086442825162242637
leaf_weight=8948.8035002946854 22487.051637858152 75.850474059581757 287.3832091242075 34.499401167035103 26.489499807357788 27815.025687202811 39.751904144883156 37.35375565290451 34.01473380625248 48.354292199015617
leaf_count=26383 66253 226 1305 114 95 126388 135 117 105 143
internal_value=-0.0128919 0.0338297 0.073494 0.0739198 0.0740552 0.0741359 0.0620857 -0.0898525 -0.0899812 -0.0774905
internal_weight=59834.6 37347.5 28279 28203.1 28168.7 28142.2 327.135 9068.53 9031.17 82.369
internal_count=221264 155011 128263 128037 127923 127828 1440 26748 26631 248
is_linear=0
shrinkage=0.05


Tree=6
num_leaves=11
num_cat=0
split_feature=47 51 60 30 14 51 40 63 42 36
split_gain=79447.8 67646.4 704.627 158.079 67.0061 14.6629 130.445 12.6167 2.08086 4.29765
threshold=21.000000000000004 13.000000000000002 255.50000000000003 2743.5000000000005 20959.000000000004 22.000000000000004 54.000000000000007 12.324999809265138 5133276.2500000009 1.0000000180025095e-35
decision_type=2 2 2 2 2 2 2 2 2 2
left_child=1 7 -3 -4 5 6 -5 8 -1 -10
right_child=-2 2 3 4 -6 -7 -8 -9 9 -11
leaf_value=-0.086588552188767376 -0.086984543878635551 -0.080184349418263981 -0.028339884768542434 0.072800018884102646 -0.01139712418877644 0.072530849764260136 -0.022899151676511818 -0.054502674698818171 -0.086915605866912604 -0.059571066385037966
leaf_weight=8844.7326120585203 22229.368419796228 75.313165202736855 38.571880742907524 293.14877496659756 23.625198721885681 27062.056411877275 40.042289644479752 37.299427449703217 43.232864558696747 41.523995473980904
leaf_count=26374 66253 226 129 1361 88 126323 136 117 128 129
internal_value=-0.012468 0.0329161 0.0717613 0.072181 0.0723235 0.0723961 0.061265 -0.086354 -0.0864809 -0.0743699
internal_weight=58728.9 36499.5 27532.8 27457.4 27418.9 27395.2 333.191 8966.79 8929.49 84.7569
internal_count=221264 155011 128263 128037 127908 127820 1497 26748 26631 257
is_linear=0
shrinkage=0.05


Tree=7
num_leaves=14
num_cat=0
split_feature=47 51 60 52 7 40 43 63 43 36 28 52 23
split_gain=72979.2 62586 654.696 149.105 87.3388 17.0178 180.014 12.2225 2.27195 5.94325 2.33219 0.736998 0.173581
threshold=21.000000000000004 13.000000000000002 255.50000000000003 1863.065124511719 6.9285714626312265 68.000000000000014 306.50000000000006 12.324999809265138 3012937.0000000005 1.0000000180025095e-35 1.0000000180025095e-35 75.914962768554702 0.10951313748955728
decision_type=2 2 2 2 2 2 2 2 2 2 2 2 2
left_child=1 7 12 4 -4 6 -6 8 10 -10 -1 -8 -3
right_child=-2 2 3 -5 5 -7 11 -9 9 -11 -12 -13 -14
leaf_value=-0.083629690041674587 -0.083903163292771296 -0.067101157239828665 -0.030295225746763584 -0.032356785274491914 -0.078550310840878643 0.070962144387946832 0.070045294360633392 -0.051999187410487285 -0.083490738869943598 -0.057244754486528771 -0.070128208969092345 0.053955022433318713 -0.085227078704410764
leaf_weight=8611.6065174043179 21901.665721565485 37.973028168082237 20.864379018545151 34.589342102408409 21.44729620218277 26310.744839608669 273.13687218725681 37.191182464361191 69.360801875591278 49.144497975707054 69.832805186510086 26.911149635910988 36.587485373020172
leaf_count=26052 66253 117 75 114 65 126367 1292 117 209 154 216 124 109
internal_value=-0.0120904 0.0320918 0.0701877 0.0706018 0.0707366 0.0708169 0.0587441 -0.0832718 -0.0833981 -0.0731765 -0.0835292 0.0687862 -0.0770059
internal_weight=57501.1 35599.4 26762.3 26687.7 26653.1 26632.2 321.495 8837.14 8799.94 118.505 8681.44 300.048 74.5605
internal_count=221264 155011 128263 128037 127923 127848 1481 26748 26631 363 26268 1416 226
is_linear=0
shrinkage=0.05


Tree=8
num_leaves=12
num_cat=0
split_feature=47 51 59 32 5 43 40 40 63 43 36
split_gain=67229.8 58028.1 385.269 268.204 75.5791 43.3675 38.3191 207.112 11.9557 2.29652 5.73915
threshold=21.000000000000004 13.000000000000002 245.50000000000003 1013.4038391113282 5.0714285373687753 36566.500000000007 68.000000000000014 54.000000000000007 12.324999809265138 3012937.0000000005 1.0000000180025095e-35
decision_type=2 2 2 2 2 2 2 2 2 2 2
left_child=1 8 3 4 -3 6 7 -5 9 -1 -11
right_child=-2 2 -4 5 -6 -7 -8 -9 -10 10 -12
leaf_value=-0.080795206215416165 -0.081174396184337971 -0.085286670143526394 -0.090692421587986544 0.069361299430805934 0.020745440537572709 0.0014024711523378348 0.069519615161166934 -0.039985763067546642 -0.049672644097361593 -0.080733172612304629 -0.054918275472295379
leaf_weight=8530.3155630081892 21515.73916593194 32.06325501203537 37.017246097326279 264.13658118247986 33.543080002069473 23.579074755311012 25533.038595691323 51.074975147843361 37.037123888731003 68.206525415182114 48.71821540594101
leaf_count=26268 66253 96 111 1305 128 88 126368 167 117 209 154
internal_value=-0.0117524 0.0313451 0.0687537 0.0689847 -0.0315772 0.0692409 0.0693028 0.0515729 -0.0805382 -0.0806646 -0.070534
internal_weight=56174.5 34658.7 25974.5 25937.4 65.6063 25871.8 25848.3 315.212 8684.28 8647.24 116.925
internal_count=221264 155011 128263 128152 224 127928 127840 1472 26748 26631 363
is_linear=0
shrinkage=0.05


Tree=9
num_leaves=15
num_cat=0
split_feature=47 51 60 30 7 40 43 5 28 33 32 36 33 23
split_gain=62091.4 53903.9 581.073 130.96 78.4136 13.827 146.98 11.0871 2.40816 3.15284 2.47791 5.84034 0.851703 0.376753
threshold=21.000000000000004 13.000000000000002 255.50000000000003 2743.5000000000005 6.9285714626312265 68.000000000000014 405.50000000000006 23.321428298950199 1.0000000180025095e-35 696.00000000000011 5147629.7500000009 1.0000000180025095e-35 99.500000000000014 0.10951313748955728
decision_type=2 2 2 2 2 2 2 2 2 2 2 2 2 2
left_child=1 7 13 -4 -5 6 -6 8 10 -10 -1 -12 -8 -3
right_child=-2 2 3 4 5 -7 12 -9 9 -11 11 -13 -14 -15
leaf_value=-0.078433560940223926 -0.078743554758467948 -0.062902860078769343 -0.023753560979333552 -0.027858138267029514 -0.066924239969843757 0.068210648787239203 0.067597753103023087 -0.048993310717836268 -0.077061159476629199 -0.050679255263475831 -0.078914168893567088 -0.048196377217346625 0.049886172897267822 -0.081053516387093946
leaf_weight=8327.379387140274 21081.907454699278 37.183380767703056 38.503883391618729 20.822281256318092 21.500075310468674 24739.870040044188 260.84056714177132 38.758635252714157 33.901265323162079 33.280285120010376 43.675058841705322 35.300910368561745 21.598442062735558 35.722933322191238
leaf_count=26162 66253 117 129 75 66 126356 1318 123 106 109 135 113 93 109
internal_value=-0.0114482 0.0306659 0.0674419 0.067852 0.0679937 0.0680745 0.0568028 -0.0780983 -0.0782257 -0.0649271 -0.0783242 -0.0659582 0.0664241 -0.0727728
internal_weight=54770.2 33688.3 25176 25103.1 25064.6 25043.8 303.939 8512.3 8473.54 67.1816 8406.36 78.976 282.439 72.9063
internal_count=221264 155011 128263 128037 127908 127833 1477 26748 26625 215 26410 248 1411 226
is_linear=0
shrinkage=0.05


Tree=10
num_leaves=16
num_cat=0
split_feature=47 51 59 32 5 43 51 52 63 52 35 52 32 36 28
split_gain=57476 50159.5 342.03 238.546 68.6855 40.6005 33.4103 83.274 11.7614 7.01492 13.2567 9.46117 2.50814 5.6648 2.41784
threshold=21.000000000000004 13.000000000000002 245.50000000000003 1013.4038391113282 5.0714285373687753 36566.500000000007 22.000000000000004 129.20105743408206 12.324999809265138 6.8089818954467782 84.96598052978517 16.85014629364014 5147629.7500000009 1.0000000180025095e-35 1.0000000180025095e-35
decision_type=2 2 2 2 2 2 2 2 2 2 2 2 2 2 2
left_child=1 8 3 4 -3 6 7 9 12 -5 11 -11 14 -14 -1
right_child=-2 2 -4 5 -6 -7 -8 -9 -10 10 -12 -13 13 -15 -16
leaf_value=-0.076247751626447882 -0.076566747090846599 -0.080585985795649157 -0.085669131879324692 0.065082946291947885 0.021106601996283163 0.00061804450732425627 0.067000987327812553 -0.036604908621855746 -0.04539203517498594 0.045693191849363157 0.062388171467740144 0.0031409260442028008 -0.076600889980329087 -0.046270648427560464 -0.062928599480534225
leaf_weight=8144.1284268796444 20609.182175129652 31.600516244769096 36.188494145870209 157.33372274041176 33.174515664577484 23.222169116139412 23944.197275012732 24.872081935405731 36.610110402107239 30.927106380462646 67.631191402673721 22.374400794506073 42.796666145324707 34.981366276741028 66.307026535272598
leaf_count=26167 66253 96 111 802 128 88 126349 88 117 154 351 96 135 113 216
internal_value=-0.0111735 0.0300464 0.0662405 0.0664699 -0.0289751 0.0667258 0.0667891 0.0498846 -0.0759096 0.0577186 0.0476824 0.0282178 -0.0760389 -0.0637201 -0.0761479
internal_weight=53305.5 32696.3 24371.5 24335.3 64.775 24270.6 24247.3 303.139 8324.82 278.266 120.933 53.3015 8288.21 77.778 8210.44
internal_count=221264 155011 128263 128152 224 127928 127840 1491 26748 1403 601 250 26631 248 26383
is_linear=0
shrinkage=0.05


Tree=11
num_leaves=15
num_cat=0
split_feature=47 51 60 52 63 40 43 63 33 32 60 28 23 52
split_gain=53311.9 46744.7 522.588 116.096 71.6186 15.2217 151.161 11.7278 3.39546 2.62395 10.2473 2.41731 0.409254 0.162431
threshold=21.000000000000004 13.000000000000002 255.50000000000003 1863.065124511719 5.8076922893524179 68.000000000000014 211.50000000000003 12.324999809265138 130.50000000000003 5147629.7500000009 8196.5000000000018 1.0000000180025095e-35 0.10951313748955728 75.914962768554702
decision_type=2 2 2 2 2 2 2 2 2 2 2 2 2 2
left_child=1 7 12 4 -4 6 -6 9 13 11 -11 -1 -3 -8
right_child=-2 2 3 -5 5 -7 8 -9 -10 10 -12 -13 -14 -15
leaf_value=-0.074278546613211191 -0.074608276108599256 -0.059889655532013135 -0.029214402923342393 -0.025680008107690416 -0.077226987084046558 0.065903864215751173 0.066356266013450946 -0.043482403379055311 0.039632801213589058 -0.038307455016102207 -0.077454147923909367 -0.061002280514327246 -0.077703783095535453 0.051430573538132587
leaf_weight=7947.0508719980717 20105.441555351019 36.389288872480392 19.34717658162117 34.343786910176277 19.679670915007591 23153.172928705812 228.50362846255302 36.357392579317093 19.61727337539196 32.260470062494278 44.226195484399796 65.044550269842148 34.6640285551548 21.949328809976578
leaf_count=26167 66253 117 69 114 59 126373 1228 117 81 109 139 216 109 113
internal_value=-0.0109238 0.0294781 0.0651317 0.0655418 0.0656765 0.065756 0.0537555 -0.0739361 0.0635497 -0.0740676 -0.0616504 -0.0741784 -0.0695382 0.0652579
internal_weight=51798 31692.6 23567.7 23496.6 23462.3 23442.9 289.75 8124.94 270.07 8088.58 76.4867 8012.1 71.0533 250.453
internal_count=221264 155011 128263 128037 127923 127854 1481 26748 1422 26631 248 26383 226 1341
is_linear=0
shrinkage=0.05


Tree=12
num_leaves=13
num_cat=0
split_feature=47 51 60 30 13 20 40 40 43 36 60 23
split_gain=49540.5 43625.2 489.385 110.541 84.01 17.4064 12.9797 114.269 2.93799 6.03706 1.44041 0.445484
threshold=21.000000000000004 13.000000000000002 255.50000000000003 2743.5000000000005 689058.37500000012 26.500000000000004 68.000000000000014 54.000000000000007 3012937.0000000005 1.0000000180025095e-35 1.0000000180025095e-35 0.10951313748955728
decision_type=2 2 2 2 2 2 2 2 2 2 2 2
left_child=1 5 11 -4 6 8 7 -5 10 -10 -1 -3
right_child=-2 2 3 4 -6 -7 -8 -9 9 -11 -12 -13
leaf_value=-0.061825043846539696 -0.072838833519154197 -0.057851720772640308 -0.019974744876427523 0.065373369483003693 -0.042511991477532381 -0.032525700263391071 0.064890118683230788 -0.030952844482956827 -0.072358692442009778 -0.045949906837403381 -0.072533093116665795 -0.075510607237461502
leaf_weight=76.939597249031067 19577.556831926107 35.836912974715233 38.22469137609005 245.12802010774612 17.633507341146469 29.926321238279343 22359.602552846074 34.59027786552906 62.367464751005173 46.168266266584396 7700.0579208135605 33.934759229421616
leaf_count=260 66253 117 129 1360 66 99 126366 116 209 154 26026 109
internal_value=-0.0106968 0.0289578 0.0641144 0.0645217 0.0646651 -0.0721482 0.0647504 0.0533937 -0.0722945 -0.0616471 -0.0724351 -0.0673861
internal_weight=50258 30680.4 22765 22695.2 22657 7915.46 22639.3 279.718 7885.53 108.536 7777 69.7717
internal_count=221264 155011 128263 128037 127908 26748 127842 1476 26649 363 26286 226
is_linear=0
shrinkage=0.05


Tree=13
num_leaves=14
num_cat=0
split_feature=47 51 60 30 13 20 51 60 43 36 28 30 23
split_gain=46112.3 40765.4 458.828 105.519 79.498 17.1277 12.7929 59.6607 3.04209 5.99104 2.14917 1.10194 0.488719
threshold=21.000000000000004 13.000000000000002 255.50000000000003 2743.5000000000005 689058.37500000012 26.500000000000004 22.000000000000004 8191.0000000000009 3012937.0000000005 1.0000000180025095e-35 1.0000000180025095e-35 32586.500000000004 0.10951313748955728
decision_type=2 2 2 2 2 2 2 2 2 2 2 2 2
left_child=1 5 12 -4 6 8 7 -5 10 -10 -1 -9 -3
right_child=-2 2 3 4 -6 -7 -8 11 9 -11 -12 -13 -14
leaf_value=-0.070914943554058904 -0.071234137778537862 -0.055941917033992074 -0.019017654793364921 -0.0097551761435715149 -0.040268409719064188 -0.031155702800025678 0.063953529158574426 0.047606640235064737 -0.070713499277285971 -0.04428582371514006 -0.058250459412712986 0.062832322661479992 -0.073526621590029859
leaf_weight=7498.3564997017384 19031.514668434858 35.256291195750237 38.192134007811546 33.557786554098129 17.738074645400047 29.729202538728714 21567.864380821586 31.128275111317635 60.693259030580521 45.56109644472599 64.325479745864868 211.76492933928967 33.154634475708008
leaf_count=26064 66253 117 129 117 66 99 126345 169 209 154 222 1211 109
internal_value=-0.0104896 0.028479 0.0631747 0.0635793 0.0637245 -0.070523 0.0638107 0.052481 -0.0706715 -0.0599001 -0.0708149 0.0610843 -0.0654007
internal_weight=48698.8 29667.3 21968.7 21900.2 21862.1 7698.67 21844.3 276.451 7668.94 106.254 7562.68 242.893 68.4109
internal_count=221264 155011 128263 128037 127908 26748 127842 1497 26649 363 26286 1380 226
is_linear=0
shrinkage=0.05


Tree=14
num_leaves=15
num_cat=0
split_feature=47 51 60 52 63 22 40 43 32 60 33 60 23 52
split_gain=42985.9 38136.6 430.635 101.151 64.5587 18.7537 15.0457 133.415 3.17303 10.7485 3.02384 0.726996 0.537118 0.344911
threshold=21.000000000000004 13.000000000000002 255.50000000000003 1863.065124511719 5.8076922893524179 42.500000000000007 68.000000000000014 211.50000000000003 5147629.7500000009 8196.5000000000018 143.50000000000003 1.0000000180025095e-35 0.10951313748955728 75.914962768554702
decision_type=2 2 2 2 2 2 2 2 2 2 2 2 2 2
left_child=1 5 12 4 -4 8 7 -6 11 -10 13 -1 -3 -9
right_child=-2 2 3 -5 6 -7 -8 10 9 -11 -12 -13 -14 -15
leaf_value=-0.06019015309738765 -0.069773863433815711 -0.054144309480437858 -0.027866236877456558 -0.022629988580619705 -0.072781182086193427 -0.027345024826824427 0.063084986465111473 0.06343595411533566 -0.031937397668345767 -0.07258652546760351 0.037166440743661516 -0.069406223744647 -0.071723961125369148 0.047790345731058871
leaf_weight=77.802924692630768 18472.519829124212 34.654059827327728 19.076142534613609 34.208748444914818 19.478636890649796 28.605762243270874 20796.837538138032 206.83759860694408 30.537778541445732 41.698962688446045 18.316694602370262 7298.0238895267248 32.334438353776932 20.259765893220901
leaf_count=272 66253 117 69 114 59 97 126373 1233 109 139 76 26131 109 113
internal_value=-0.0102996 0.0280368 0.0623038 0.0627061 0.0628456 -0.0690398 0.0629291 0.0505011 -0.0691963 -0.056073 0.0605417 -0.0693172 -0.0635599 0.0622558
internal_weight=47131.2 28658.7 21182 21115 21080.8 7476.67 21061.7 264.893 7448.06 72.2367 245.414 7375.83 66.9885 227.097
internal_count=221264 155011 128263 128037 127923 26748 127854 1481 26651 248 1422 26403 226 1346
is_linear=0
shrinkage=0.05


Tree=15
num_leaves=13
num_cat=0
split_feature=47 51 60 30 13 65 40 40 43 36 28 23
split_gain=40126.5 35715.6 404.59 96.601 83.0796 19.2591 12.868 100.428 3.4974 6.43845 1.21645 0.589314
threshold=21.000000000000004 13.000000000000002 255.50000000000003 2743.5000000000005 815309.43750000012 15.338792800903322 68.000000000000014 54.000000000000007 3012937.0000000005 1.0000000180025095e-35 1.0000000180025095e-35 0.10951313748955728
decision_type=2 2 2 2 2 2 2 2 2 2 2 2
left_child=1 5 11 -4 6 8 7 -5 10 -10 -1 -3
right_child=-2 2 3 4 -6 -7 -8 -9 9 -11 -12 -13
leaf_value=-0.06808709845369422 -0.068440901723888614 -0.05244539190708393 -0.017301835150142796 0.06268970859527126 -0.049792594766847741 -0.024610519441600105 0.062285287192143768 -0.028534141307978746 -0.067931808295101453 -0.040389875973720096 -0.05750980056712969 -0.070079404845167503
leaf_weight=7054.5678010135889 17905.084031105042 34.036016628146172 38.039484336972237 220.70920099318027 15.899606287479399 27.324911683797836 20031.806835621595 34.329607784748077 57.312703877687454 43.956097289919853 68.17079097032547 31.483607649803162
leaf_count=26049 66253 117 129 1360 57 93 126375 116 209 154 243 109
internal_value=-0.0101253 0.0276284 0.061498 0.0618984 0.0620476 -0.067681 0.0621377 0.050347 -0.0678405 -0.056489 -0.067994 -0.0618451
internal_weight=45562.7 27657.6 20406.3 20340.8 20302.7 7251.33 20286.8 255.039 7224.01 101.269 7122.74 65.5196
internal_count=221264 155011 128263 128037 127908 26748 127851 1476 26655 363 26292 226
is_linear=0
shrinkage=0.05


Tree=16
num_leaves=13
num_cat=0
split_feature=47 51 60 59 52 62 40 43 43 36 33 28
split_gain=37504.2 33480.6 380.472 146.726 90.8098 19.0599 9.6829 111.866 3.62911 6.42101 2.75736 1.36784
threshold=21.000000000000004 13.000000000000002 255.50000000000003 245.50000000000003 1863.065124511719 31.500000000000004 68.000000000000014 211.50000000000003 3012937.0000000005 1.0000000180025095e-35 172.50000000000003 1.0000000180025095e-35
decision_type=2 2 2 2 2 2 2 2 2 2 2 2
left_child=1 5 -3 4 6 8 7 -4 11 -10 -9 -1
right_child=-2 2 3 -5 -6 -7 -8 10 9 -11 -12 -13
leaf_value=-0.066850646160588806 -0.067220701896392773 -0.060240274726302993 -0.06792705585756037 -0.085908014399365684 -0.020141436866915968 -0.023492527333958176 0.061547178151958065 0.06189180754044539 -0.066663103116711891 -0.038973491872861817 0.035871871584690511 -0.056002003736390665
leaf_weight=6831.5102940350771 17333.114796549082 64.017585873603821 17.576399579644203 16.120847284793854 33.757540881633759 27.13420295715332 19285.652487188578 211.41927470266819 55.547096401453018 43.328393891453743 15.744071483612059 66.573608905076981
leaf_count=26049 66253 226 54 48 113 93 126406 1353 209 154 63 243
internal_value=-0.00996476 0.0272499 0.0607493 0.0611479 0.0612735 -0.0664333 0.0614152 0.0508091 -0.0665964 -0.0550409 0.0602536 -0.0667541
internal_weight=44001.5 26668.4 19644.3 19580.3 19564.1 7024.09 19530.4 244.74 6996.96 98.8755 227.163 6898.08
internal_count=221264 155011 128263 128037 127989 26748 127876 1470 26655 363 1416 26292
is_linear=0
shrinkage=0.05


Tree=17
num_leaves=14
num_cat=0
split_feature=47 51 60 59 30 65 40 43 32 60 33 28 23
split_gain=35093.7 31414.2 357.83 137.621 87.1847 19.3994 8.00811 98.2658 3.77584 11.3754 2.066 1.46194 0.807004
threshold=21.000000000000004 13.000000000000002 255.50000000000003 245.50000000000003 2743.5000000000005 16.870749473571781 68.000000000000014 211.50000000000003 5147629.7500000009 8196.5000000000018 172.50000000000003 1.0000000180025095e-35 0.10951313748955728
decision_type=2 2 2 2 2 2 2 2 2 2 2 2 2
left_child=1 5 12 4 -4 8 7 -6 11 -10 -9 -1 -3
right_child=-2 2 3 -5 6 -7 -8 10 9 -11 -12 -13 -14
leaf_value=-0.065684798058647284 -0.066100845455165799 -0.049018008691820686 -0.01518413088938839 -0.082732030603568818 -0.06449846295677307 -0.021484937507490035 0.060853440111985485 0.061156496381777031 -0.026173266354039739 -0.068843194091699894 0.037138695860345905 -0.054674493412142845 -0.067353281363022641
leaf_weight=6636.9707771837711 16759.976661980152 32.651925534009933 37.536935865879059 15.945427924394606 16.377949297428131 26.40413299202919 18545.713194280863 203.47643505036831 28.729065984487534 38.969546616077423 15.297812938690184 65.281865477561951 29.831477522850037
leaf_count=26165 66253 117 128 48 51 91 126395 1353 109 139 62 244 109
internal_value=-0.00981678 0.0268991 0.0600549 0.060452 0.0605777 -0.0652837 0.0607299 0.0507702 -0.0654513 -0.05138 0.0596537 -0.0655857 -0.0586949
internal_weight=42453.2 25693.2 18896.8 18834.3 18818.4 6796.36 18780.9 235.152 6769.95 67.6986 218.774 6702.25 62.4834
internal_count=221264 155011 128263 128037 127989 26748 127861 1466 26657 248 1415 26409 226
is_linear=0
shrinkage=0.05


Tree=18
num_leaves=16
num_cat=0
split_feature=47 51 60 59 52 65 40 43 43 36 33 28 23 29 29
split_gain=32872.6 29499.2 337.077 129.261 83.9241 20.9922 9.49585 98.4806 4.12402 6.89181 3.61031 1.52772 0.858153 0.526757 0.141502
threshold=21.000000000000004 13.000000000000002 255.50000000000003 245.50000000000003 1863.065124511719 18.188063621521 68.000000000000014 211.50000000000003 3012937.0000000005 1.0000000180025095e-35 188.50000000000003 1.0000000180025095e-35 0.10951313748955728 791.48187255859386 171152.86718750003
decision_type=2 2 2 2 2 2 2 2 2 2 2 2 2 2 2
left_child=1 5 12 4 6 8 7 -4 11 -10 -9 14 -3 -13 -1
right_child=-2 2 3 -5 -6 -7 -8 10 9 -11 -12 13 -14 -15 -16
leaf_value=-0.064934056091576417 -0.065070649552875073 -0.047564609965993876 -0.063358475041850701 -0.079899158070776161 -0.01849486516555689 -0.017422802252139599 0.060212829130174818 0.060482425550328581 -0.064505910662064361 -0.035489369629531989 0.031107425963256448 -0.062132525432431453 -0.066064941245038242 -0.046091481229760589 -0.062087772974814395
leaf_weight=5767.5348303318024 16188.55436205864 32.0140710324049 17.139320760965347 15.726168423891066 33.633826702833176 24.755391418933868 17827.411149919033 196.66510987281799 52.105207100510597 41.661086514592171 14.557940334081648 26.502039819955826 28.934813961386681 37.80500739812851 618.95211274921894
leaf_count=23519 66253 117 54 48 113 86 126406 1359 209 154 57 97 109 149 2534
internal_value=-0.00967997 0.0265727 0.0594077 0.0598036 0.0599295 -0.0642209 0.0600766 0.0492232 -0.0643952 -0.0521242 0.058614 -0.0645655 -0.0572721 -0.0535524 -0.064668
internal_weight=40924 24735.4 18166.1 18105.1 18089.4 6569.32 18055.8 228.362 6544.56 93.7663 211.223 6450.79 60.9489 64.307 6386.49
internal_count=221264 155011 128263 128037 127989 26748 127876 1470 26662 363 1416 26299 226 246 26053
is_linear=0
shrinkage=0.05


Tree=19
num_leaves=17
num_cat=0
split_feature=47 51 60 59 30 65 40 43 43 36 33 28 23 29 29 76
split_gain=30821.8 27722.5 317.772 121.56 80.8843 20.7248 7.8305 86.4513 4.27786 6.88373 2.79074 1.68874 0.911044 0.513514 0.206484 2.41239
threshold=21.000000000000004 13.000000000000002 255.50000000000003 245.50000000000003 2743.5000000000005 18.188063621521 68.000000000000014 211.50000000000003 3012937.0000000005 1.0000000180025095e-35 188.50000000000003 1.0000000180025095e-35 0.10951313748955728 791.48187255859386 104099.53515625001 1.0000000180025095e-35
decision_type=2 2 2 2 2 2 2 2 2 2 2 2 2 2 2 2
left_child=1 5 12 4 -4 8 7 -6 11 -10 -9 14 -3 -13 -1 -16
right_child=-2 2 3 -5 6 -7 -8 10 9 -11 -12 13 -14 -15 15 -17
leaf_value=-0.064025310361688376 -0.064120883588106678 -0.046171542692085538 -0.013832785820310986 -0.077356677636428575 -0.06016798843331405 -0.016663910025270772 0.059611190147064598 0.059843228812917704 -0.063500936265368568 -0.034257433805520626 0.032681455259546764 -0.060768659997312957 -0.064873958132704773 -0.044863700142215426 -0.057002076856642138 -0.06412430539431653
leaf_weight=5347.1404883563519 15621.316013365984 31.37748284637928 37.357770204544067 15.470183968544005 15.912286460399626 24.637259423732758 17121.603713497519 189.03143203258514 50.343831673264503 41.052959769964218 14.129323258996008 25.782743081450462 28.033925011754036 36.946992859244347 311.18201290071011 506.84078060090542
leaf_count=22589 66253 117 128 48 51 86 126395 1359 209 154 56 97 109 149 1325 2139
internal_value=-0.00955339 0.0262684 0.0588043 0.0591993 0.0593253 -0.0632371 0.0594837 0.0492971 -0.063416 -0.0508785 0.0581235 -0.0635918 -0.0559243 -0.0522518 -0.0636987 -0.0614879
internal_weight=39418.2 23796.8 17452.9 17393.5 17378 6343.93 17340.7 219.073 6319.29 91.3968 203.161 6227.89 59.4114 62.7297 6165.16 818.023
internal_count=221264 155011 128263 128037 127989 26748 127861 1466 26662 363 1415 26299 226 246 26053 3464
is_linear=0
shrinkage=0.05


Tree=20
num_leaves=16
num_cat=0
split_feature=47 51 60 59 30 5 40 40 32 60 28 23 29 29 76
split_gain=28924.6 26071.2 299.788 114.444 78.0901 22.0526 7.75034 59.6978 4.43572 12.0919 1.60968 0.965118 0.420547 0.220881 1.88669
threshold=21.000000000000004 13.000000000000002 255.50000000000003 245.50000000000003 2743.5000000000005 37.261363983154304 68.000000000000014 54.000000000000007 5147629.7500000009 8196.5000000000018 1.0000000180025095e-35 0.10951313748955728 3570.813110351563 171152.86718750003 1.0000000180025095e-35
decision_type=2 2 2 2 2 2 2 2 2 2 2 2 2 2 2
left_child=1 5 11 4 -4 8 7 -6 10 -10 13 -3 -12 -1 -15
right_child=-2 2 3 -5 6 -7 -8 -9 9 -11 12 -13 -14 14 -16
leaf_value=-0.063043018797799361 -0.063243506697174601 -0.044832675264825005 -0.013177078363780629 -0.075062023878276762 0.059249946300797995 -0.01335936529586107 0.059052416855021522 -0.01702703202548933 -0.020809305691777333 -0.065896621543815023 -0.044464689800865279 -0.063769730595512858 -0.059816051723717525 -0.055498608793165372 -0.063190941455396582
leaf_weight=5394.0005843788385 15060.357540503144 30.744894504547119 37.306977391242981 15.18374654650688 181.89220298826694 23.527003943920135 16436.776786789298 29.384354636073112 26.929923295974731 36.206004351377487 37.192842617630959 27.13354766368866 25.219468638300896 238.94582971930504 339.01690901815891
leaf_count=23633 66253 117 128 48 1361 83 126395 105 109 139 149 109 101 1051 1483
internal_value=-0.00943594 0.025984 0.0582402 0.0586347 0.0587608 -0.0623235 0.0589228 0.0486111 -0.0625102 -0.0472894 -0.0626616 -0.0546427 -0.0515133 -0.0627695 -0.0601121
internal_weight=37939.8 22879.5 16758.4 16700.5 16685.4 6121.04 16648.1 211.277 6097.51 63.1359 6034.38 57.8784 62.4123 5971.96 577.963
internal_count=221264 155011 128263 128037 127989 26748 127861 1466 26665 248 26417 226 250 26167 2534
is_linear=0
shrinkage=0.05


Tree=21
num_leaves=17
num_cat=0
split_feature=47 51 60 59 52 5 51 43 43 51 33 28 23 29 29 76
split_gain=27166.6 24533.6 283.008 107.849 75.5044 22.0458 8.66216 73.2921 4.81583 7.35993 3.52261 1.78982 1.0199 0.453906 0.343346 2.57053
threshold=21.000000000000004 13.000000000000002 255.50000000000003 245.50000000000003 1863.065124511719 42.125000000000007 22.000000000000004 211.50000000000003 3012937.0000000005 1.0000000180025095e-35 258.50000000000006 1.0000000180025095e-35 0.10951313748955728 3570.813110351563 104099.53515625001 1.0000000180025095e-35
decision_type=2 2 2 2 2 2 2 2 2 2 2 2 2 2 2 2
left_child=1 5 12 4 6 8 7 -4 11 -10 -9 14 -3 -13 -1 -16
right_child=-2 2 3 -5 -6 -7 -8 10 9 -11 -12 13 -14 -15 15 -17
leaf_value=-0.062313468136410866 -0.062431512554658043 -0.043542706132260064 -0.04540742827543192 -0.072980437780346061 -0.016380456196939716 -0.012216535124134016 0.058529982016220464 0.058872766307691816 -0.06178713904255001 -0.031061584171902162 0.030351583669506185 -0.043249746559147192 -0.062743048979798141 -0.058728096123013697 -0.054980410316914786 -0.062415250709507902
leaf_weight=4968.6599095463753 14507.445127695799 30.118636101484299 18.575053989887238 14.872378408908842 33.445389449596405 23.184822827577591 15769.504083618522 175.60718831419945 46.986129358410835 39.39505323767662 15.116886705160139 36.374836921691895 26.23775252699852 24.440658673644066 291.40854687988758 470.90397395193577
leaf_count=22589 66253 117 64 48 113 82 126387 1365 209 154 60 149 109 101 1325 2139
internal_value=-0.00932662 0.0257177 0.0577114 0.0581055 0.0582318 -0.0614726 0.058389 0.0475403 -0.0616648 -0.0482903 0.0567823 -0.0618559 -0.0534198 -0.0503196 -0.0619695 -0.0596489
internal_weight=36492.3 21984.8 16083.5 16027.1 16012.2 5901.35 15978.8 209.299 5878.17 86.3812 190.724 5791.79 56.3564 60.8155 5730.97 762.313
internal_count=221264 155011 128263 128037 127989 26748 127876 1489 26666 363 1425 26303 226 250 26053 3464
is_linear=0
shrinkage=0.05


Tree=22
num_leaves=17
num_cat=0
split_feature=47 51 60 59 30 22 40 43 43 36 33 28 23 29 29 76
split_gain=25535 23100.9 267.344 101.727 73.0605 22.6885 7.8505 75.1947 4.99051 7.34762 3.89192 1.87664 1.07499 0.972796 0.413689 2.6572
threshold=21.000000000000004 13.000000000000002 255.50000000000003 245.50000000000003 2743.5000000000005 80.500000000000014 68.000000000000014 211.50000000000003 3012937.0000000005 1.0000000180025095e-35 258.50000000000006 1.0000000180025095e-35 0.10951313748955728 791.48187255859386 104099.53515625001 1.0000000180025095e-35
decision_type=2 2 2 2 2 2 2 2 2 2 2 2 2 2 2 2
left_child=1 5 12 4 -4 8 7 -6 11 -10 -9 14 -3 -13 -1 -16
right_child=-2 2 3 -5 6 -7 -8 10 9 -11 -12 13 -14 -15 15 -17
leaf_value=-0.061548677709256289 -0.061678754297524709 -0.042297032069766344 -0.012025872734010089 -0.071083215443581413 -0.056309433123845377 -0.010291893058018626 0.058043269498085061 0.058324244461867153 -0.060972887512085988 -0.02997626578038682 0.026709755562921184 -0.05875289230415142 -0.06178588197273846 -0.040830292824378028 -0.054042400076694141 -0.061652568464854278
leaf_weight=4783.9752239882946 13964.053721413016 29.500683292746544 37.123465597629547 14.540940642356871 15.367731750011442 22.70195147395134 15124.84057751298 168.30911237001419 45.289283454418182 38.831105843186378 12.941275805234907 25.282636880874634 25.350018441677094 34.044519230723381 281.90246663987637 453.34997089207172
leaf_count=22590 66253 117 128 48 51 81 126395 1364 209 154 51 101 109 149 1325 2139
internal_value=-0.00922489 0.0254686 0.0572169 0.0576108 0.0577373 -0.0606792 0.0579071 0.0471897 -0.0608794 -0.0471847 0.0562259 -0.0610774 -0.0522491 -0.0493154 -0.0611948 -0.0588121
internal_weight=35077.4 21113.4 15428 15373.1 15358.6 5685.38 15321.5 196.618 5662.68 84.1204 181.25 5578.55 54.8507 59.3272 5519.23 735.252
internal_count=221264 155011 128263 128037 127989 26748 127861 1466 26667 363 1415 26304 226 250 26054 3464
is_linear=0
shrinkage=0.05


Tree=23
num_leaves=17
num_cat=0
split_feature=47 51 60 59 30 7 40 43 43 36 33 28 29 23 29 76
split_gain=24018.4 21763.9 252.703 96.0318 70.8037 26.6894 7.77164 70.7621 5.17602 7.33953 4.06965 1.79605 3.06496 1.13003 0.491307 2.75493
threshold=21.000000000000004 13.000000000000002 255.50000000000003 245.50000000000003 2743.5000000000005 54.187500000000007 68.000000000000014 211.50000000000003 3012937.0000000005 1.0000000180025095e-35 258.50000000000006 1.0000000180025095e-35 593.21615600585949 0.10951313748955728 104099.53515625001 1.0000000180025095e-35
decision_type=2 2 2 2 2 2 2 2 2 2 2 2 2 2 2 2
left_child=1 5 13 4 -4 8 7 -6 11 -10 -9 14 -13 -3 -1 -16
right_child=-2 2 3 -5 6 -7 -8 10 9 -11 -12 12 -14 -15 15 -17
leaf_value=-0.060839707289526937 -0.060979799025337636 -0.041091661572892256 -0.011456391918312062 -0.069346471845130556 -0.05461847391455163 -0.0024663277522271685 0.057586748505424251 0.057829010222033607 -0.060212085911720871 -0.028924900763282191 0.025620407428833144 -0.063575726341554339 -0.037518721278412548 -0.060891189517576494 -0.053139836244828667 -0.060943978472935013
leaf_weight=4603.5193105340004 13431.406520232558 28.892695292830467 37.07142935693264 14.193700343370436 15.089395195245741 20.214697271585464 14498.362070612609 161.44521010667086 43.623310208320618 38.280994296073914 12.861527532339094 23.647571906447411 35.637339979410172 24.473299965262413 272.60948222875595 436.1375447511673
leaf_count=22593 66253 117 128 48 51 73 126395 1364 209 154 51 96 159 109 1325 2139
internal_value=-0.00913004 0.0252349 0.0567532 0.0571472 0.0572739 -0.0599369 0.0574481 0.0465892 -0.0601495 -0.0461141 0.0556121 -0.0603549 -0.0487945 -0.0511246 -0.0604747 -0.0580213
internal_weight=33697.5 20266.1 14792.4 14739 14724.8 5473.67 14687.8 189.396 5453.46 81.9043 174.307 5371.55 59.2849 53.366 5312.27 708.747
internal_count=221264 155011 128263 128037 127989 26748 127861 1466 26675 363 1415 26312 255 226 26057 3464
is_linear=0
shrinkage=0.05


Tree=24
num_leaves=18
num_cat=0
split_feature=47 51 60 59 30 18 40 43 32 60 33 51 23 60 23 41 41
split_gain=22606.7 20514.9 239.005 90.7233 68.6989 28.825 7.69539 66.6294 5.38679 13.467 4.24026 1.98517 38.5556 7.34391 1.18471 0.268257 7.06024
threshold=21.000000000000004 13.000000000000002 255.50000000000003 245.50000000000003 2743.5000000000005 213.50000000000003 68.000000000000014 211.50000000000003 5147629.7500000009 8196.5000000000018 258.50000000000006 6.5000000000000009 223.71781921386722 30.500000000000004 0.10951313748955728 1214127.5000000002 5040787.0000000009
decision_type=2 2 2 2 2 2 2 2 2 2 2 2 2 2 2 2 2
left_child=1 5 14 4 -4 8 7 -6 11 -10 -9 -1 13 -13 -3 -15 -17
right_child=-2 2 3 -5 6 -7 -8 10 9 -11 -12 12 -14 15 -16 16 -18
leaf_value=-0.060200162500834854 -0.060329858435642425 -0.039923125585616608 -0.010913857277320214 -0.067750141165945174 -0.053020522397175099 0.0021713505245256532 0.057159102663971589 0.057363788677097675 -0.01359238510509809 -0.06298847969572198 0.024577387838994793 -0.034074087264508786 0.011557561552527745 -0.060398376525016464 -0.060052763279899057 -0.025230814711821987 -0.058944185231678825
leaf_weight=4336.7541737109423 12910.499656006694 28.29605533182621 37.019621044397354 13.834401696920393 14.804374545812605 18.968735665082932 13891.841310724616 154.79323122650385 24.482449591159821 32.778352215886116 12.78149029612541 34.464875161647797 19.869820043444633 653.66098964214325 23.610087633132935 20.155056118965149 125.45947913825512
leaf_count=22101 66253 117 128 48 51 69 126395 1364 109 139 51 174 107 3310 109 103 636
internal_value=-0.00904143 0.0250154 0.0563178 0.0567121 0.056839 -0.0592414 0.0570179 0.046012 -0.0594638 -0.0424645 0.0550237 -0.0596431 -0.0567458 -0.0583855 -0.0500413 -0.0593899 -0.0544817
internal_weight=32354.1 19443.6 14177 14125.1 14111.2 5266.59 14074.2 182.379 5247.63 57.2608 167.575 5190.36 853.61 833.74 51.9061 799.276 145.615
internal_count=221264 155011 128263 128037 127989 26748 127861 1466 26679 248 1415 26431 4330 4223 226 4049 739
is_linear=0
shrinkage=0.05


Tree=25
num_leaves=17
num_cat=0
split_feature=47 51 60 59 52 63 40 40 32 60 51 23 60 23 41 41
split_gain=21291 19346.7 226.177 85.7675 66.7924 28.8643 9.21164 54.0849 5.62531 13.0296 2.09253 39.4459 7.38369 1.23875 0.325535 7.0155
threshold=21.000000000000004 13.000000000000002 255.50000000000003 245.50000000000003 1863.065124511719 67.219047546386733 68.000000000000014 54.000000000000007 5147629.7500000009 8196.5000000000018 6.5000000000000009 1488.6492309570315 30.500000000000004 0.10951313748955728 1214127.5000000002 5040787.0000000009
decision_type=2 2 2 2 2 2 2 2 2 2 2 2 2 2 2 2
left_child=1 5 13 4 6 8 7 -4 10 -10 -1 12 -12 -3 -14 -16
right_child=-2 2 3 -5 -6 -7 -8 -9 9 -11 11 -13 14 -15 15 -17
leaf_value=-0.059579553646167939 -0.059724671199883561 -0.038788416440390217 0.056778133106972301 -0.066277252232916847 -0.01402523675632102 0.0032925501229419431 0.056761802554873342 -0.01711846466898451 -0.01303339928685825 -0.062052635879235686 -0.033130996133287065 0.014447584671706327 -0.059774832255649203 -0.059265111645056823 -0.024410101010021539 -0.058277653033876622
leaf_weight=4167.5287096053362 12402.135760247707 27.711899757385254 147.62146300077438 13.466316461563109 33.197333723306656 18.672251999378204 13307.809966675937 29.232455268502235 24.303402602672577 31.652693092823029 33.721246525645256 19.031252652406693 629.11184647679329 22.762463048100471 19.83302415907383 120.68217524886131
leaf_count=22102 66253 117 1361 48 113 68 126406 109 109 139 174 102 3315 109 103 636
internal_value=-0.0089585 0.0248087 0.0559084 0.0563033 0.0564303 -0.0585873 0.0566048 0.0445361 -0.0588169 -0.0413648 -0.0590042 -0.0560199 -0.0577052 -0.0489948 -0.0587375 -0.0537037
internal_weight=31048.5 18646.3 13581.8 13531.3 13517.9 5064.54 13484.7 176.854 5045.86 55.9561 4989.91 822.38 803.348 50.4744 769.627 140.515
internal_count=221264 155011 128263 128037 127989 26748 127876 1470 26680 248 26432 4330 4228 226 4054 739
is_linear=0
shrinkage=0.05


Tree=26
num_leaves=19
num_cat=0
split_feature=47 51 60 59 30 18 40 43 43 40 33 28 23 23 29 76 11 60
split_gain=20063.3 18253 214.15 81.1329 64.9011 29.7627 7.6715 61.1595 6.10452 8.15401 4.06282 2.25754 7.37105 1.2919 0.806731 3.28498 24.1055 49.3832
threshold=21.000000000000004 13.000000000000002 255.50000000000003 245.50000000000003 2743.5000000000005 292.50000000000006 68.000000000000014 211.50000000000003 3012937.0000000005 54.000000000000007 258.50000000000006 1.0000000180025095e-35 7.8494024276733407 0.10951313748955728 104099.53515625001 1.0000000180025095e-35 1.0000000180025095e-35 257.50000000000006
decision_type=2 2 2 2 2 2 2 2 2 2 2 2 2 2 2 2 2 2
left_child=1 5 13 4 -4 8 7 -6 11 -10 -9 14 -13 -3 -1 16 -16 -18
right_child=-2 2 3 -5 6 -7 -8 10 9 -11 -12 12 -14 -15 15 -17 17 -19
leaf_value=-0.058994099398391092 -0.059160434566754211 -0.03768492685681514 -0.0099728835768346097 -0.064913336104693728 -0.051022373903126465 0.0057865904994006401 0.056381816501684258 0.056530574743571177 -0.02438019786007762 -0.058372256064087615 0.024273989380094591 -0.0217872937503432 -0.060412430059473547 -0.058523355996421569 -0.059282380070014407 -0.059112739248903728 0.034281598427073685 -0.058046606334674594
leaf_weight=4087.8618114441633 11906.941734567285 27.141148582100868 36.842759117484093 13.092303112149237 14.418881133198736 18.062297075986862 12738.71133197099 142.15393853932619 35.83539243042469 39.086412712931633 12.757550850510595 21.829844251275063 33.475840106606483 21.932144448161125 185.33739185333252 387.24582178890705 22.977392807602882 35.934353485703468
leaf_count=22597 66253 117 128 48 51 66 126395 1364 154 209 51 101 157 109 999 2139 133 193
internal_value=-0.00888072 0.0246137 0.055522 0.0559177 0.0560449 -0.057972 0.0562341 0.0448529 -0.0582106 -0.042649 0.0540469 -0.0584458 -0.0458243 -0.0479809 -0.058584 -0.0558403 -0.0504322 -0.0220646
internal_weight=29781.6 17874.7 13007.1 12958 12944.9 4867.65 12908 169.33 4849.58 74.9218 154.911 4774.66 55.3057 49.0733 4719.36 631.495 244.249 58.9117
internal_count=221264 155011 128263 128037 127989 26748 127861 1466 26682 363 1415 26319 258 226 26061 3464 1325 326
is_linear=0
shrinkage=0.05


Tree=27
num_leaves=16
num_cat=0
split_feature=47 51 60 59 30 5 40 40 42 60 51 23 60 23 42
split_gain=18916.3 17228.7 202.872 76.7955 63.1772 29.7611 7.60778 44.0712 6.17212 13.3702 2.45101 38.6335 7.52245 1.34392 0.80338
threshold=21.000000000000004 13.000000000000002 255.50000000000003 245.50000000000003 2743.5000000000005 298.75000000000006 68.000000000000014 54.000000000000007 5133276.2500000009 8196.5000000000018 6.5000000000000009 1488.6492309570315 30.500000000000004 0.10951313748955728 2966958.0000000005
decision_type=2 2 2 2 2 2 2 2 2 2 2 2 2 2 2
left_child=1 5 13 4 -4 8 7 -6 10 -10 -1 12 -12 -3 -14
right_child=-2 2 3 -5 6 -7 -8 -9 9 -11 11 -13 14 -15 -16
leaf_value=-0.058471134735154154 -0.05863377364500956 -0.03661039567595719 -0.0095003817591441803 -0.063645983730290498 0.055984885224917617 0.006792423709072265 0.056028395282640066 -0.012949584107577747 -0.010558836209869761 -0.060797464823558856 -0.031175928606354975 0.015409927528018813 -0.057945036661919226 -0.057823141082240737 -0.042913038151484707
leaf_weight=3846.3911981582642 11425.393431842327 26.584533169865608 36.792420983314514 12.714848667383192 135.41206842660904 17.790638715028763 12191.941664718091 27.532433167099953 23.808472752571106 30.325795233249664 32.186580881476402 18.820819497108459 683.46298281848431 21.12053219974041 23.340725257992744
leaf_count=22111 66253 117 128 48 1361 65 126395 105 116 141 175 102 3909 109 129
internal_value=-0.00880804 0.0244297 0.0551588 0.0555554 0.0556828 -0.0573932 0.0558777 0.0443292 -0.0576397 -0.0392946 -0.0578468 -0.0546051 -0.0564067 -0.0469963 -0.05751
internal_weight=28553.6 17128.2 12452.1 12404.4 12391.7 4676.13 12354.9 162.945 4658.34 54.1343 4604.2 757.811 738.99 47.7051 706.804
internal_count=221264 155011 128263 128037 127989 26748 127861 1466 26683 257 26426 4315 4213 226 4038
is_linear=0
shrinkage=0.05


Tree=28
num_leaves=19
num_cat=0
split_feature=47 51 60 59 30 20 40 43 43 36 33 60 23 23 29 76 11 60
split_gain=17843.8 16267.4 192.279 72.7283 61.5599 31.9941 7.70978 56.3723 6.62747 8.51531 3.95983 2.50532 10.311 1.39458 0.828383 3.76357 24.2954 48.0995
threshold=21.000000000000004 13.000000000000002 255.50000000000003 245.50000000000003 2743.5000000000005 44.500000000000007 68.000000000000014 211.50000000000003 3012937.0000000005 1.0000000180025095e-35 258.50000000000006 1.0000000180025095e-35 3.4373986721038823 0.10951313748955728 104099.53515625001 1.0000000180025095e-35 1.0000000180025095e-35 257.50000000000006
decision_type=2 2 2 2 2 2 2 2 2 2 2 2 2 2 2 2 2 2
left_child=1 5 13 4 -4 8 7 -6 11 -10 -9 12 -1 -3 -13 16 -16 -18
right_child=-2 2 3 -5 6 -7 -8 10 9 -11 -12 14 -14 -15 15 -17 17 -19
leaf_value=-0.014058241788289669 -0.058141631297309974 -0.035562869445686721 -0.0090500804973667765 -0.062464484971710768 -0.04924568994259336 0.011061971543258019 0.05569620189769519 0.055790867791707645 -0.057344194783293057 -0.021860600865864221 0.023813532153138452 -0.057944847946637339 -0.059622812134853757 -0.057160565726499316 -0.058206292381417946 -0.058247425801815834 0.035454171277227199 -0.057106840486264056
leaf_weight=19.434356793761253 10957.837375640869 26.042615950107574 36.742978975176811 12.336109071969984 14.0505134165287 16.980582654476166 11664.758927576244 130.36307211220264 36.3532694876194 34.493220627307892 12.72066371142864 3757.8419537469745 37.574264764785767 20.328744813799858 170.95456549525261 360.10849559307098 22.685818135738373 33.723401427268982
leaf_count=104 66253 117 128 48 51 63 126395 1364 209 154 51 22555 187 109 999 2150 132 195
internal_value=-0.00873938 0.0242557 0.0548144 0.0552122 0.0553399 -0.0568445 0.0555408 0.043725 -0.0571047 -0.0406129 0.053133 -0.0573609 -0.0445999 -0.0460379 -0.057518 -0.0546936 -0.0488345 -0.0199129
internal_weight=27365.3 16407.5 11917.3 11871 11858.6 4490.15 11821.9 157.134 4473.17 70.8465 143.084 4402.32 57.0086 46.3714 4345.31 587.472 227.364 56.4092
internal_count=221264 155011 128263 128037 127989 26748 127861 1466 26685 363 1415 26322 291 226 26031 3476 1326 327
is_linear=0
shrinkage=0.05


Tree=29
num_leaves=19
num_cat=0
split_feature=47 51 60 52 13 7 51 43 43 36 40 23 28 23 29 76 23 60
split_gain=16839.7 15366 182.335 60.9123 54.9781 34.3438 12.5089 56.0481 6.83733 8.44948 5.49376 3.17705 2.8341 7.91284 1.07926 3.68518 24.3731 43.9603
threshold=21.000000000000004 13.000000000000002 255.50000000000003 1863.065124511719 960133.75000000012 201.35176849365237 22.000000000000004 293.50000000000006 3012937.0000000005 1.0000000180025095e-35 54.000000000000007 0.10255156084895135 1.0000000180025095e-35 6.7570343017578134 104099.53515625001 1.0000000180025095e-35 4259.8557128906259 257.50000000000006
decision_type=2 2 2 2 2 2 2 2 2 2 2 2 2 2 2 2 2 2
left_child=1 5 11 4 6 8 7 -4 12 -10 -9 -3 14 -14 -1 16 -16 -18
right_child=-2 2 3 -5 -6 -7 -8 10 9 -11 -12 -13 13 -15 15 -17 17 -19
leaf_value=-0.057483078088025774 -0.057681280260113266 -0.028727147404437658 -0.037081470737738216 -0.01240517841630546 -0.064252052861573997 0.016120340528626938 0.055390915741927817 0.055278406369605876 -0.05680036744156286 -0.021051757566531212 0.021563399277881156 -0.057832017209230126 -0.017290230911176124 -0.058528751189432515 -0.057750529833398082 -0.057610813734123162 0.03231432370913883 -0.056392050321331634
leaf_weight=3612.4400330111384 10504.503594428301 21.137601315975189 19.598848015069962 33.193203404545784 8.8559118658304197 15.902669757604597 11155.709394305944 124.04534637928009 34.912327036261559 34.076813608407974 15.302885234355925 23.935868367552757 20.159323647618294 30.709045916795731 164.30010306835175 341.99700464308262 23.403374150395393 31.903120070695877
leaf_count=22602 66253 98 77 114 35 59 126386 1361 209 154 64 128 99 160 1000 2139 133 193
internal_value=-0.0086752 0.024091 0.0544907 0.0548899 0.0550882 -0.0563265 0.0551873 0.0406386 -0.0565985 -0.0396956 0.0517559 -0.0451028 -0.0568651 -0.0428342 -0.0570258 -0.0539872 -0.0481086 -0.018948
internal_weight=26216.1 15711.6 11401.8 11356.7 11323.5 4309.8 11314.7 158.947 4293.9 68.9891 139.348 45.0735 4224.91 50.8684 4174.04 561.604 219.607 55.3065
internal_count=221264 155011 128263 128037 127923 26748 127888 1502 26689 363 1425 226 26326 259 26067 3465 1326 326
is_linear=0
shrinkage=0.05


Tree=30
num_leaves=18
num_cat=0
split_feature=47 51 60 59 30 5 40 43 43 36 33 23 28 23 29 7 11
split_gain=15899 14519.3 172.972 66.1443 58.5197 35.2512 7.64991 50.7283 7.05093 8.38269 4.41319 3.18198 2.89983 7.46005 1.12669 8.3772 33.9062
threshold=21.000000000000004 13.000000000000002 255.50000000000003 245.50000000000003 2743.5000000000005 672.11764526367199 68.000000000000014 211.50000000000003 3012937.0000000005 1.0000000180025095e-35 696.00000000000011 0.10255156084895135 1.0000000180025095e-35 6.7570343017578134 104099.53515625001 8.166666507720949 34.000000000000007
decision_type=2 2 2 2 2 2 2 2 2 2 2 2 2 2 2 2 2
left_child=1 5 11 4 -4 8 7 -6 12 -10 -9 -3 14 -14 -1 16 -16
right_child=-2 2 3 -5 6 -7 -8 10 9 -11 -12 -13 13 -15 15 -17 -18
leaf_value=-0.057033445618865947 -0.05725024181555928 -0.027812139906395396 -0.0082253038459783618 -0.060622081121491048 -0.046905318978948229 0.018700832573943307 0.055090042041849488 0.054724170546883937 -0.05628519886870384 -0.020267126166304036 0.016788299925617117 -0.057196862881181733 -0.017558456468351812 -0.057889095577094409 0.026814181396484157 -0.055763697185167271 -0.056302084816343079
leaf_weight=3462.2560582086444 10065.523392006755 20.783416703343391 36.562955409288406 11.669641077518461 13.5321809053421 15.364446192979811 10668.068268366158 122.63560579717159 33.514820590615273 33.6754110455513 9.343084439635275 23.025754600763321 20.26888881623745 29.536707267165184 15.837136536836622 477.87513549625874 46.72761344909668
leaf_count=22601 66253 98 128 48 51 57 126395 1377 209 154 38 128 100 160 94 3072 301
internal_value=-0.00861475 0.0239347 0.0541836 0.0545844 0.0547139 -0.0558362 0.0549275 0.0427126 -0.0561186 -0.0387951 0.052185 -0.0441883 -0.0563962 -0.0421448 -0.056563 -0.0534492 -0.0351719
internal_weight=25106.2 15040.7 10905.6 10861.8 10850.1 4135.06 10813.6 145.511 4119.69 67.1902 131.979 43.8092 4052.5 49.8056 4002.7 540.44 62.5647
internal_count=221264 155011 128263 128037 127989 26748 127861 1466 26691 363 1415 226 26328 260 26068 3467 395
is_linear=0
shrinkage=0.05


Tree=31
num_leaves=20
num_cat=0
split_feature=6 51 60 60 21 20 31 33 43 36 11 51 40 28 23 23 29 7 11
split_gain=14978.5 13687.9 151.753 118.464 53.7936 36.197 28.0673 16.542 7.26727 8.31411 6.69923 6.55936 33.5452 3.28472 7.93979 2.11166 1.07016 8.54112 32.2175
threshold=10.065217494964601 13.000000000000002 255.50000000000003 8196.5000000000018 1300.4650878906252 211.50000000000003 265.50000000000006 3967.0000000000005 3012937.0000000005 1.0000000180025095e-35 170.00000000000003 22.000000000000004 54.000000000000007 1.0000000180025095e-35 6.7570343017578134 0.10951313748955728 104099.53515625001 8.166666507720949 34.000000000000007
decision_type=2 2 2 2 2 2 2 2 2 2 2 2 2 2 2 2 2 2 2
left_child=1 5 15 6 -5 8 -4 10 13 -10 11 12 -8 16 -15 -3 -1 18 -18
right_child=-2 2 3 4 -6 -7 7 -9 9 -11 -12 -13 -14 14 -16 -17 17 -19 -20
leaf_value=-0.056604206114103134 -0.056847896269806367 -0.02949756021545933 -0.0022056023590023639 -0.064913408940250092 0.051522808986404683 0.021378035555752052 0.054647906407759288 -0.014566712740474483 -0.055796191465541149 -0.019506145237119167 0.014290860143858759 0.054827883759285372 -0.0080327439290968482 -0.015071576916565372 -0.057284527663513198 -0.055351172569556822 0.025114689076977503 -0.05539771187758788 -0.055850086802962884
leaf_weight=3315.6096926033497 9625.7108335644007 22.182785078883171 21.734780550003052 29.718406997621059 13.771745681762694 14.826285153627394 113.2940127030015 8.2670425772666913 32.161158427596092 33.288768291473389 11.114963121712206 10179.330007858574 25.957064464688301 19.433821678161621 28.395477071404457 18.192517206072807 16.123418912291527 461.19953042268753 44.80718956887722
leaf_count=22595 66142 107 76 154 165 55 1358 37 209 154 114 126149 105 98 160 110 94 3081 301
internal_value=-0.0085577 0.0237026 0.0537317 0.0541081 -0.027713 -0.0553689 0.0544542 0.0545735 -0.0556622 -0.0379099 0.0546302 0.0546723 0.04299 -0.0559514 -0.0407926 -0.042203 -0.0561297 -0.0530137 -0.0343657
internal_weight=24035.1 14409.4 10443.6 10403.2 43.4902 3965.85 10359.7 10338 3951.02 65.4499 10329.7 10318.6 139.251 3885.57 47.8293 40.3753 3837.74 522.13 60.9306
internal_count=221264 155122 128375 128158 319 26747 127839 127763 26692 363 127726 127612 1463 26329 258 217 26071 3476 395
is_linear=0
shrinkage=0.05


Tree=32
num_leaves=17
num_cat=0
split_feature=47 51 60 59 52 22 40 43 32 60 43 51 23 60 32 23
split_gain=14189.7 12974.6 155.877 60.5947 55.6022 38.5304 9.35835 51.6385 7.54964 15.7274 5.04628 3.28376 38.5908 8.75332 4.45693 3.26802
threshold=21.000000000000004 13.000000000000002 255.50000000000003 245.50000000000003 1863.065124511719 930.50000000000011 68.000000000000014 293.50000000000006 5147629.7500000009 8196.5000000000018 36566.500000000007 6.5000000000000009 4259.8557128906259 30.500000000000004 2012612.3125000002 0.10255156084895135
decision_type=2 2 2 2 2 2 2 2 2 2 2 2 2 2 2 2
left_child=1 5 15 4 6 8 7 -4 11 -10 -9 -1 13 -13 -15 -3
right_child=-2 2 3 -5 -6 -7 -8 10 9 -11 -12 12 -14 14 -16 -17
leaf_value=-0.056252046188300465 -0.056467547764342221 -0.025839460098927403 -0.043362351795724702 -0.059060544038528978 -0.010616844946473115 0.025904300440920777 0.054556882889960627 0.054417709143809515 -0.00075970734940253727 -0.058702993128028194 0.012661412480473642 -0.024931472420042095 0.022586300412746729 -0.055748792925759807 -0.02649122961974569 -0.056105154478247092
leaf_weight=3118.799151904881 9230.8465258330107 20.029605180025101 15.451464369893072 11.061195835471151 32.724346354603767 14.150471836328505 9748.3519705086946 112.28185798227787 20.47222138941288 26.447359785437584 8.4834097400307638 27.771808639168739 16.549418076872826 562.42097800970078 16.042815878987312 21.362768694758415
leaf_count=22116 66253 98 59 48 113 53 126406 1348 109 139 63 177 93 3965 96 128
internal_value=-0.00850344 0.0236459 0.0536166 0.0540211 0.0541532 -0.0549242 0.0543687 0.0406017 -0.0552329 -0.0339643 0.0516125 -0.0554904 -0.0515922 -0.0536511 -0.0549845 -0.0424147
internal_weight=23003.2 13772.4 9969.75 9928.35 9917.29 3802.65 9884.57 136.217 3788.5 46.9196 120.765 3741.58 622.785 606.236 578.464 41.3924
internal_count=221264 155011 128263 128037 127989 26748 127876 1470 26695 248 1411 26447 4331 4238 4061 226
is_linear=0
shrinkage=0.05


Tree=33
num_leaves=19
num_cat=0
split_feature=47 72 59 52 59 5 33 40 43 52 43 36 28 23 14 29 7 11
split_gain=13412.4 12269.9 100.275 89.1172 108.92 39.989 38.1708 11.527 69.0773 8.61146 7.87332 8.57344 3.50313 7.51187 2.40004 1.3306 8.75438 30.1285
threshold=21.000000000000004 13.000000000000002 245.50000000000003 275.88500976562506 227.50000000000003 705.65817260742199 12784.500000000002 68.000000000000014 293.50000000000006 5307.3869628906259 3012937.0000000005 1.0000000180025095e-35 1.0000000180025095e-35 6.7570343017578134 4.5000000000000009 104099.53515625001 8.166666507720949 34.000000000000007
decision_type=2 2 2 2 2 2 2 2 2 2 2 2 2 2 2 2 2 2
left_child=1 5 3 6 9 10 7 8 -3 -5 12 -12 15 -14 -6 -1 17 -17
right_child=-2 2 -4 4 14 -7 -8 -9 -10 -11 11 -13 13 -15 -16 16 -18 -19
leaf_value=-0.055847625789642689 -0.056111892414437425 -0.045214681368881904 -0.057532923949220993 -0.025451323536108402 0.094326240816422255 0.029855507642755536 -0.052195888164944915 0.054310076125144581 0.053899600637148319 -0.071562394584260572 -0.05498283494948486 -0.017239727129215114 -0.01456344303507342 -0.056272099815679683 0.052745373489595175 0.02386203748729147 -0.054470204917230848 -0.055017183699402852
leaf_weight=3043.1976898312569 8834.9036934822798 19.98155215382576 19.576426714658737 20.487634107470512 13.40833628177643 13.415155798196791 7.7126417011022559 9299.232517324388 113.48043543100357 22.899257957935333 29.729315966367722 32.119742095470428 19.3217703551054 26.388684913516045 11.935950279235838 16.314312696456909 423.33127009868622 41.160192936658859
leaf_count=22601 66253 86 111 131 60 50 33 126211 1401 84 209 154 100 160 146 94 3079 301
internal_value=-0.0084524 0.0235122 0.0533556 0.0535899 -0.00309447 -0.054498 0.0540029 0.0540953 0.0388346 -0.0508523 -0.0548177 -0.0359681 -0.0551341 -0.0393311 0.0774891 -0.0553279 -0.0519292 -0.0326019
internal_weight=22008.6 13173.7 9528.71 9509.14 68.7312 3644.98 9440.41 9432.69 133.462 43.3869 3631.56 61.8491 3569.71 45.7105 25.3443 3524 480.806 57.4745
internal_count=221264 155011 128263 128152 421 26748 127731 127698 1487 215 26698 363 26335 260 206 26075 3474 395
is_linear=0
shrinkage=0.05


Tree=34
num_leaves=20
num_cat=0
split_feature=47 51 60 59 30 20 43 60 34 40 43 33 28 23 23 76 23 60 32
split_gain=12681.9 11606.7 141.372 54.6391 53.576 38.4648 8.09298 8.54696 26.7949 7.64112 41.706 6.63538 3.79676 7.69597 3.42012 1.41215 24.5985 49.0657 0.124324
threshold=21.000000000000004 13.000000000000002 255.50000000000003 245.50000000000003 2743.5000000000005 387.50000000000006 3012937.0000000005 8196.5000000000018 1023012.4375000001 68.000000000000014 211.50000000000003 966.50000000000011 1.0000000180025095e-35 6.7570343017578134 0.10255156084895135 1.0000000180025095e-35 1488.6492309570315 256.50000000000006 2050805.4375000002
decision_type=2 2 2 2 2 2 2 2 2 2 2 2 2 2 2 2 2 2 2
left_child=1 5 14 4 -4 6 12 8 -8 10 -6 -12 15 -14 -3 16 18 -18 -1
right_child=-2 2 3 -5 9 -7 7 -9 -10 -11 11 -13 13 -15 -16 -17 17 -19 -20
leaf_value=-0.055393401282716262 -0.055777795635424281 -0.023817650972352854 -0.0071690693290793715 -0.057310832996096177 -0.042964494778428668 0.028412152144888233 0.029351081836303923 -0.058104773592206116 -0.054940594819454153 0.054073729583599052 0.05374085366131176 0.0053277422073900564 -0.013010092418710366 -0.055749972422489351 -0.055244264570092877 -0.055799346263842156 0.029977522457552946 -0.055200293257399217 -0.046089218941465504
leaf_weight=821.52967808395624 8453.089278653264 19.241658985614777 35.843339264392853 10.340925872325895 12.594598948955534 13.501769602298735 15.637939393520353 23.630450680851936 21.026929616928101 8894.8662342950702 104.56368074566126 7.8360856026411048 18.835776448249817 25.339963719248772 19.980240494012833 2443.1965813860297 26.032790012657642 44.692225113511086 39.413434572517872
leaf_count=6325 66253 98 128 48 51 50 94 126 143 126395 1383 32 99 160 128 18955 166 330 300
internal_value=-0.00840417 0.0233845 0.0531078 0.0535185 0.0536514 -0.0540922 -0.0544204 -0.0351247 -0.0191646 0.0538938 0.0407643 0.0504424 -0.0547503 -0.0382178 -0.0408023 -0.0549553 -0.0526845 -0.0238668 -0.0550214
internal_weight=21051.2 12598.1 9105.27 9066.04 9055.7 3492.84 3479.34 60.2953 36.6649 9019.86 124.994 112.4 3419.04 44.1757 39.2219 3374.86 931.668 70.725 860.943
internal_count=221264 155011 128263 128037 127989 26748 26698 363 237 127861 1466 1415 26335 259 226 26076 7121 496 6625
is_linear=0
shrinkage=0.05


Tree=35
num_leaves=18
num_cat=0
split_feature=47 51 60 51 5 7 13 32 60 60 18 51 23 60 32 23 31
split_gain=11994.7 10982.2 134.415 53.4062 114.983 42.9126 14.4087 8.36569 15.4577 7.69407 17.2575 3.89296 37.1175 9.54224 4.90655 3.41351 0.0333948
threshold=21.000000000000004 13.000000000000002 255.50000000000003 22.000000000000004 5.0714285373687753 241.32361602783206 689058.37500000012 5147629.7500000009 8196.5000000000018 358.50000000000006 4352.0000000000009 6.5000000000000009 4259.8557128906259 30.500000000000004 2012612.3125000002 0.10255156084895135 2371.0000000000005
decision_type=2 2 2 2 2 2 2 2 2 2 2 2 2 2 2 2 2
left_child=1 5 15 4 -4 7 16 11 -9 -6 -11 -1 13 -13 -15 -3 -5
right_child=-2 2 3 6 9 -7 -8 8 -10 10 -12 12 -14 14 -16 -17 -18
leaf_value=-0.055214127111315119 -0.055463727130141277 -0.023021554477099793 -0.038420268515439296 0.073442835467514442 0.096588833289452669 0.035947359884488217 -0.016663465475719376 0.0019907403637571476 -0.057169589970360507 -0.023907130884750296 0.0536028854271332 -0.021228830654302953 0.022857787025583633 -0.054613482518221318 -0.023196028765598183 -0.05473257688953595 0.053857805901222959
leaf_weight=2739.2683154419065 8085.2117761448026 18.953725814819336 49.435690179467201 6.7929508388042441 9.1892666071653348 12.655677229166029 6.8273754492402068 19.653038650751114 24.008719898760319 7.2183199599385253 93.16806598007679 25.443586841225624 16.44688469171524 493.97781673818827 14.838977634906767 19.188096664845943 8488.0624453872442
leaf_count=22121 66253 98 193 34 38 48 49 109 139 53 1332 177 93 3965 96 128 126338
internal_value=-0.00835889 0.0232619 0.052872 0.0532854 0.0243584 -0.0537036 0.0538235 -0.0540546 -0.031092 0.0527727 0.0478487 -0.0543498 -0.0499584 -0.0522386 -0.0537445 -0.0399652 0.0538821
internal_weight=20130.3 12045.1 8698.84 8660.69 159.011 3346.29 8501.68 3333.64 43.6618 109.576 100.386 3289.98 550.707 534.26 508.817 38.1418 8494.86
internal_count=221264 155011 128263 128037 1616 26748 126421 26700 248 1423 1385 26452 4331 4238 4061 226 126372
is_linear=0
shrinkage=0.05


Tree=36
num_leaves=18
num_cat=0
split_feature=47 51 60 30 59 7 43 36 43 40 40 28 23 23 23 36 76
split_gain=11348.4 10392.6 127.85 53.4894 49.7994 44.6125 8.72281 9.22692 7.94477 4.52386 19.7816 4.12572 7.55802 3.40566 1.66657 43.3801 3.81016
threshold=21.000000000000004 13.000000000000002 255.50000000000003 2743.5000000000005 245.50000000000003 257.97367858886724 3012937.0000000005 1.0000000180025095e-35 36566.500000000007 68.000000000000014 54.000000000000007 1.0000000180025095e-35 6.7570343017578134 0.10255156084895135 4259.8557128906259 1.0000000180025095e-35 1.0000000180025095e-35
decision_type=2 2 2 2 2 2 2 2 2 2 2 2 2 2 2 2 2
left_child=1 5 13 -4 8 6 11 -8 9 10 -5 14 -13 -3 -1 16 -16
right_child=-2 2 3 4 -6 -7 7 -9 -10 -11 -12 12 -14 -15 15 -17 -18
leaf_value=-0.054926117211124961 -0.055168292147939196 -0.022245162623785758 -0.0077881582926398775 0.05316521751757583 -0.056064434811714803 0.039899579776072662 -0.054103023823733026 -0.013605097292125216 0.0034232365642204131 0.053655153207311214 0.00091674591300836971 -0.011723811260396308 -0.0548784280780421 -0.054242220252958807 -0.039453408524574976 0.032298113924037607 -0.055118859141194514
leaf_weight=2597.1523883938789 7731.03969938308 18.67655736207962 35.720396414399147 85.316861115396023 9.6293120533227903 12.110395818948744 26.853286616504192 30.25212125480175 8.0666384622454625 8110.7954990565777 22.972530975937843 18.464827239513397 23.511429399251938 18.421928487718105 56.146838694810867 14.61326017230749 426.03744134306908
leaf_count=21951 66253 98 129 1305 47 46 209 154 64 126394 98 100 160 128 433 82 3613
internal_value=-0.00831473 0.023145 0.0526446 0.0530609 0.0533257 -0.053328 -0.0536939 -0.0332522 0.0534606 0.0535093 0.042191 -0.0540554 -0.0366098 -0.0391406 -0.0542802 -0.0508001 -0.0533802
internal_weight=19245.8 11514.7 8309.6 8272.5 8236.78 3205.14 3193.03 57.1054 8227.15 8219.08 108.289 3135.93 41.9763 37.0985 3093.95 496.798 482.184
internal_count=221264 155011 128263 128037 127908 26748 26702 363 127861 127797 1403 26339 260 226 26079 4128 4046
is_linear=0
shrinkage=0.05


Tree=37
num_leaves=18
num_cat=0
split_feature=47 51 60 51 5 7 13 43 36 29 60 51 23 60 23 32 41
split_gain=10739.6 9836.76 121.656 53.1631 105.821 43.9395 13.5154 8.94644 9.07671 6.56702 5.20823 4.00924 46.2904 9.75851 3.39627 2.9645 2.51477
threshold=21.000000000000004 13.000000000000002 255.50000000000003 22.000000000000004 5.0714285373687753 358.37980651855474 689058.37500000012 3012937.0000000005 1.0000000180025095e-35 6475.0583496093759 1983.5000000000002 6.5000000000000009 6700.1862792968759 30.500000000000004 0.10255156084895135 1978326.8125000002 729.50000000000011
decision_type=2 2 2 2 2 2 2 2 2 2 2 2 2 2 2 2 2
left_child=1 5 14 4 -4 7 -5 11 -9 -6 -11 -1 13 -13 -3 -15 -12
right_child=-2 2 3 6 9 -7 -8 8 -10 10 16 12 -14 15 -16 -17 -18
leaf_value=-0.054632019463437431 -0.054890213179689451 -0.021488174630778192 -0.036788694049371164 0.053479974746979186 0.0053914847167825649 0.040178067861218032 -0.016062623586468119 -0.053711940774848227 -0.013055404989896819 0.0928397224510044 0.01757690741411545 -0.019823482604210921 0.044070762167230708 -0.053859809489992805 -0.053771244398243212 -0.026451770677956621 0.053151913582004162
leaf_weight=2501.5964482501149 7390.3099660053849 18.409905478358269 48.84187413752079 7743.345140080899 7.2306016385555258 11.934154063463209 6.58401134610176 25.732026427984238 29.998301073908806 9.0743016302585584 6.6378911957144728 24.703332379460335 12.284099638462065 449.94856408238411 17.681629046797752 13.041866905987261 78.541619449853897
leaf_count=22049 66253 98 193 126372 82 45 49 209 154 37 86 180 66 3933 128 112 1218
internal_value=-0.0082734 0.0230322 0.0524271 0.0528465 0.0231823 -0.0529686 0.0534188 -0.0533452 -0.0324434 0.0521222 0.0556128 -0.0537224 -0.0490711 -0.0515025 -0.0383273 -0.0531464 0.0506157
internal_weight=18395.9 11005.6 7936.35 7900.26 150.326 3069.24 7749.93 3057.3 55.7303 101.484 94.2538 3001.57 499.978 487.694 36.0915 462.99 85.1795
internal_count=221264 155011 128263 128037 1616 26748 126421 26703 363 1423 1341 26340 4291 4225 226 4045 1304
is_linear=0
shrinkage=0.05


Tree=38
num_leaves=21
num_cat=0
split_feature=47 72 60 72 5 7 13 43 60 34 29 28 23 60 23 41 23 36 76 41
split_gain=10166.3 9312.16 115.813 52.7954 98.9612 41.9039 13.1531 9.16681 9.09126 29.8936 6.46097 4.58073 7.74509 4.11903 3.38508 2.56028 1.86023 40.4968 4.24417 0.177369
threshold=21.000000000000004 13.000000000000002 255.50000000000003 22.000000000000004 5.0714285373687753 358.37980651855474 689058.37500000012 3012937.0000000005 8196.5000000000018 912431.75000000012 6475.0583496093759 1.0000000180025095e-35 6.7570343017578134 1983.5000000000002 0.10255156084895135 729.50000000000011 4259.8557128906259 1.0000000180025095e-35 1.0000000180025095e-35 6033845.5000000009
decision_type=2 2 2 2 2 2 2 2 2 2 2 2 2 2 2 2 2 2 2 2
left_child=1 5 14 4 -4 7 -5 11 9 -9 -6 16 -13 -12 -3 -15 19 18 -18 -1
right_child=-2 2 3 6 10 -7 -8 8 -10 -11 13 12 -14 15 -16 -17 17 -19 -20 -21
leaf_value=-0.054421562034362728 -0.054628316924473667 -0.020750323550733387 -0.035246261559349179 0.053294388554274132 0.0051612217386492586 0.038016098815563872 -0.015365175245425678 0.039745026667063706 -0.05651360319581053 -0.05366620647247046 0.088773829840215646 -0.0094528373793080524 -0.05409065962429125 0.016971867742204168 -0.053317857479796373 0.05292611338044384 -0.037664784509279577 0.029214028137669976 -0.05457453762239757 -0.040037677880842677
leaf_weight=2360.1037455350161 7062.7343145683408 18.153509885072708 48.483359709382057 7390.702131986618 7.220407109707593 12.036339372396467 6.5841161012649527 13.888340592384337 21.222343049943447 19.296687699854374 9.06139028072357 17.811896860599518 21.808262199163437 6.5682578012347212 16.966988064348698 75.025959469377995 52.151593007147312 15.031045556068419 389.68820099532604 15.526485301554201
leaf_count=21820 66253 98 193 126372 82 45 49 85 126 152 37 100 160 86 128 1218 433 82 3614 131
internal_value=-0.00823346 0.0229244 0.052219 0.0526418 0.0226909 -0.0526204 0.0532312 -0.0530061 -0.0316451 -0.0145534 0.0514566 -0.0533996 -0.0347497 0.0550473 -0.0375245 0.0502724 -0.0536481 -0.0499163 -0.0526682 -0.0543444
internal_weight=17580.1 10517.3 7578.77 7543.65 146.359 2938.56 7397.29 2926.53 54.4074 33.185 97.876 2872.12 39.6202 90.6556 35.1205 81.5942 2832.5 456.871 441.84 2375.63
internal_count=221264 155011 128263 128037 1616 26748 126421 26703 363 237 1423 26340 260 1341 226 1304 26080 4129 4047 21951
is_linear=0
shrinkage=0.05


Tree=39
num_leaves=22
num_cat=0
split_feature=47 51 51 5 4 7 31 43 36 32 28 59 23 36 76 59 43 52 41 41 41
split_gain=9625.8 8817.46 87.7715 112.893 52.7652 40.0111 26.9943 9.37096 9.31107 6.33288 4.74467 9.81492 1.95516 38.9092 4.39583 16.7569 1.75461 0.254521 0.231243 4.56673 0.00196692
threshold=21.000000000000004 13.000000000000002 22.000000000000004 1349.640319824219 1.0000000180025095e-35 358.37980651855474 235854.50000000003 3012937.0000000005 1.0000000180025095e-35 1013.4038391113282 1.0000000180025095e-35 1.0000000180025095e-35 4259.8557128906259 1.0000000180025095e-35 1.0000000180025095e-35 229.50000000000003 2.5000000000000004 275.88500976562506 1214127.5000000002 4327786.5000000009 6033845.5000000009
decision_type=2 2 2 2 2 2 2 2 2 2 2 2 2 2 2 2 2 2 2 2 2
left_child=1 5 3 6 9 7 16 10 -9 -4 12 -12 18 14 15 -14 -3 -11 -1 -20 -21
right_child=-2 2 4 -5 -6 -7 -8 8 -10 17 11 -13 13 -15 -16 -17 -18 -19 19 20 -22
leaf_value=-0.05436928694567475 -0.054381525210938621 -0.032349412769506307 0.018002075962285931 0.05490839515410019 -0.056289160998324088 0.036008676319707958 0.019192361780630777 -0.053237985940220195 -0.011159740252410448 0.053108108963226791 -0.0061365456182242966 -0.056536654875941617 0.010463735519490109 0.027367831610306193 -0.054318678467678884 -0.053824054600723294 -0.053995310851039396 0.034820455923960457 -0.016144048930096168 -0.053145473339814536 -0.039361299698072408
leaf_weight=2131.1611520424485 6748.0022713765502 21.963154636323452 14.176243450492619 85.150657940655947 10.291730798780916 12.125343978404997 21.217043973505497 24.106020048260689 29.037534072995186 7040.2367775738239 17.866065621376038 20.748883135616779 13.404268041253088 15.302977114915846 372.38935496658087 37.196990869939327 33.817244619131088 9.3439101204276067 10.827713914215563 113.79176749289036 15.033398061990736
leaf_count=20618 66253 98 102 1386 64 45 103 209 154 126193 133 127 111 82 3614 322 154 163 105 1097 131
internal_value=-0.00819582 0.0228201 0.0520199 0.0155318 0.052854 -0.052286 -0.0281601 -0.052681 -0.0308773 0.053021 -0.0530913 -0.0339615 -0.0533513 -0.0494909 -0.0523295 -0.0369215 -0.0461922 0.0530888 -0.0540743 -0.0492184 -0.0518525
internal_weight=16797.2 10049.2 7236.2 162.148 7074.05 2812.99 76.9974 2800.87 53.1436 7063.76 2747.72 38.6149 2709.11 438.294 422.991 50.6013 55.7804 7049.58 2270.81 139.653 128.825
internal_count=221264 155011 128263 1741 126522 26748 355 26703 363 126458 26340 260 26080 4129 4047 433 252 126356 21951 1333 1228
is_linear=0
shrinkage=0.05


Tree=40
num_leaves=21
num_cat=0
split_feature=47 51 60 51 5 7 13 32 60 29 28 23 23 11 45 76 23 60 32 45
split_gain=9115.93 8350.66 106.491 51.6732 88.6852 49.1038 14.0592 9.62092 16.3428 6.25814 4.9401 7.89869 3.49958 3.21003 2.39996 2.07186 27.4326 48.8687 0.943785 5.08836
threshold=21.000000000000004 13.000000000000002 255.50000000000003 22.000000000000004 5.0714285373687753 462.41667175292974 815309.43750000012 5147629.7500000009 8196.5000000000018 6475.0583496093759 1.0000000180025095e-35 6.7570343017578134 0.10255156084895135 34.000000000000007 735.50000000000011 1.0000000180025095e-35 4259.8557128906259 257.50000000000006 2050805.4375000002 6288080.0000000009
decision_type=2 2 2 2 2 2 2 2 2 2 2 2 2 2 2 2 2 2 2 2
left_child=1 5 12 4 -4 7 -5 10 -9 -6 15 -12 -3 -11 -15 16 18 -18 -1 -20
right_child=-2 2 3 6 9 -7 -8 8 -10 13 11 -13 -14 14 -16 -17 17 -19 19 -21
leaf_value=-0.053728528912918294 -0.054148846530111198 -0.019090807647723446 -0.033044239659717888 0.052954049678405196 0.0043581770975083135 0.052227284445568026 -0.022909034467418002 0.0083179790536757406 -0.055544234082186443 0.084830415814037469 -0.0074895386367743099 -0.053416819292245538 -0.052691754177974705 0.017579395831421134 0.05249041698174365 -0.054117371921963031 0.038649683040531159 -0.053464576595214412 -0.012244254827203527 -0.051766270973445994
leaf_weight=637.80930811166763 6445.7870710343122 17.581665515899658 47.573841005563736 6730.5699964128435 6.9478174522519103 10.512393862009047 5.5995758175849906 17.945423372089863 21.041148953139782 9.0071476250886899 17.281481102108955 20.444223269820213 15.987199686467646 6.6900733709335318 67.869059421122074 1859.9371355175972 23.05213688313961 35.08019295334816 11.221674397587774 38.187736555933952
leaf_count=6362 66253 98 193 126381 82 40 40 109 139 37 100 160 128 94 1210 18905 157 322 79 375
internal_value=-0.00816042 0.0227192 0.051831 0.0522659 0.0217748 -0.0519607 0.0528876 -0.0523884 -0.0266757 0.0506337 -0.0527574 -0.033115 -0.0361546 0.0543841 0.049632 -0.053029 -0.0502444 -0.0169012 -0.0530362 -0.0432111
internal_weight=16046.1 9600.34 6907.83 6874.26 138.088 2692.51 6736.17 2682 38.9866 90.5141 2643.01 37.7257 33.5689 83.5663 74.5591 2605.29 745.351 58.1323 687.219 49.4094
internal_count=221264 155011 128263 128037 1616 26748 126421 26708 248 1423 26460 260 226 1341 1304 26200 7295 479 6816 454
is_linear=0
shrinkage=0.05


Tree=41
num_leaves=21
num_cat=0
split_feature=48 51 60 60 5 65 52 59 33 36 23 32 60 23 11 40 52 30 40 42
split_gain=8614.39 7889.86 91.4171 85.187 51.1961 30.6671 26.3402 63.7248 16.5425 10.1078 40.5692 32.107 26.8491 4.74925 4.42248 1.95919 13.0866 2.07578 16.1822 0.687451
threshold=10.065217494964601 13.000000000000002 255.50000000000003 8196.5000000000018 984.20578002929699 1191.8482666015627 275.88500976562506 227.50000000000003 12784.500000000002 1.0000000180025095e-35 9266.4145507812518 2983416.3750000005 22.500000000000004 0.089824374765157713 170.00000000000003 68.000000000000014 109.614070892334 1861035.0000000002 54.000000000000007 2.8333333730697636
decision_type=2 2 2 2 2 2 2 2 2 2 2 2 2 2 2 2 2 2 2 2
left_child=1 4 13 6 9 -5 8 -8 14 -1 11 12 -11 -3 15 16 17 18 -4 -14
right_child=-2 2 3 5 -6 -7 7 -9 -10 10 -12 -13 19 -15 -16 -17 -18 -19 -20 -21
leaf_value=-0.053622736626613203 -0.053931591966777562 -0.012433761196054766 0.052325635427032724 -0.061673345477289622 0.0584572563282304 0.042408301960679573 -0.053914421838911764 0.068649168266445265 -0.032353337968742228 0.027449705773644351 0.047262756869683523 0.0098141117731289276 -0.032884077449174258 -0.052304246265464205 0.012095801159583797 0.052788453655327174 -0.020071736247510418 0.074561592452509401 -0.025074882271423394 -0.052785466803275317
leaf_weight=2100.3334000259638 6146.5851067006588 15.047452941536905 69.424502514302731 21.718573234975342 9.7368376255035383 9.4478904232382757 18.8677112236619 21.79046143963933 5.1156236156821242 10.224213451147078 10.852387093007563 22.997668035328388 10.561675846576689 15.616803094744681 7.4104171991348258 6395.9771371036768 6.9204567633569232 8.8278298079967481 6.8815160095691672 411.87685696035624
leaf_count=22101 66142 86 1296 147 37 172 109 207 23 74 57 127 104 131 113 125946 59 55 31 4247
internal_value=-0.00812624 0.0225471 0.0515015 0.0519043 -0.051646 -0.0297842 0.052298 0.0118438 0.0525492 -0.0520863 -0.0450689 -0.0473667 -0.0504217 -0.0337497 0.052621 0.0526654 0.0436431 0.0489953 0.0451113 -0.0523667
internal_weight=15326.2 9179.63 6603.05 6572.38 2576.58 31.1665 6541.22 40.6582 6500.56 2566.85 466.513 455.66 432.663 30.6643 6495.44 6488.03 92.0543 85.1338 76.306 422.439
internal_count=221264 155122 128375 128158 26747 319 127839 316 127523 26710 4609 4552 4425 217 127500 127387 1441 1382 1327 4351
is_linear=0
shrinkage=0.05


Tree=42
num_leaves=14
num_cat=0
split_feature=47 51 60 51 5 60 5 13 36 23 32 60 23
split_gain=8181.83 7492.75 96.8024 50.579 80.0935 58.6096 48.43 13.2943 10.3977 38.6522 31.4728 26.1007 3.45208
threshold=21.000000000000004 13.000000000000002 255.50000000000003 22.000000000000004 1349.640319824219 349.50000000000006 984.20578002929699 815309.43750000012 1.0000000180025095e-35 6700.1862792968759 2689937.2500000005 22.500000000000004 0.10255156084895135
decision_type=2 2 2 2 2 2 2 2 2 2 2 2 2
left_child=1 6 12 4 5 -4 8 -5 -1 10 11 -10 -3
right_child=-2 2 3 7 -6 -7 -8 -9 9 -11 -12 -13 -14
leaf_value=-0.053384368109797777 -0.053722360353670354 -0.017761906312630985 0.032631146511484979 0.052646923798230022 0.054340515766427192 -0.069198560272205251 0.055492142867157493 -0.022201649204218493 0.025713616770594302 0.038997115180455871 0.0077475202266456926 -0.052376578736298696 -0.051869668006214537
leaf_weight=2006.7419866248965 5877.676884137094 17.142533108592037 24.517526596784592 6125.1452840380371 74.788429163396358 30.950714439153671 9.7960548698902112 5.4325840696692458 10.430801868438719 12.729257248342035 24.452469177544117 401.24182530492544 14.703935191035269
leaf_count=22102 66253 98 110 126381 1385 121 37 40 74 65 135 4335 128
internal_value=-0.00809317 0.0225319 0.0514775 0.0519209 0.0208759 -0.024408 -0.05134 0.052577 -0.0517886 -0.0445511 -0.0470733 -0.0503404 -0.0346096
internal_weight=14635.8 8758.07 6292.68 6260.83 130.257 55.4682 2465.39 6130.58 2455.6 448.854 436.125 411.673 31.8465
internal_count=221264 155011 128263 128037 1616 231 26748 126421 26711 4609 4544 4409 226
is_linear=0
shrinkage=0.05


Tree=43
num_leaves=14
num_cat=0
split_feature=47 51 60 5 51 5 60 13 36 23 32 60 23
split_gain=7753.62 7099 92.3664 50.5957 49.4517 75.8729 54.6307 12.8755 10.6283 34.9631 30.7095 25.2252 3.42556
threshold=21.000000000000004 13.000000000000002 255.50000000000003 1349.640319824219 22.000000000000004 1349.640319824219 349.50000000000006 815309.43750000012 1.0000000180025095e-35 6700.1862792968759 2689937.2500000005 22.500000000000004 0.10255156084895135
decision_type=2 2 2 2 2 2 2 2 2 2 2 2 2
left_child=1 3 12 8 5 6 -4 -6 -1 10 11 -10 -3
right_child=-2 2 4 -5 7 -7 -8 -9 9 -11 -12 -13 -14
leaf_value=-0.053160675081890735 -0.053526787866867223 -0.017122299312838627 0.031109568594763583 0.061296957609876024 0.052505124511043888 0.054130224878695801 -0.067906786025856411 -0.021309626553175507 0.02411660731581727 0.033647242250489214 0.0073397783470407763 -0.05209959402476181 -0.051476124989782504
leaf_weight=1917.1716498918831 5610.9347170367837 16.936455249786381 24.480699494481087 9.1890066862106305 5841.7589227184653 71.414162840694189 30.005521982908249 5.4192042946815482 10.62646985799074 13.342226058244703 24.572702676057816 383.65625353902578 14.098507739603518
leaf_count=22103 66253 98 110 35 126381 1385 121 40 74 66 135 4335 128
internal_value=-0.0080621 0.0224452 0.0513164 -0.051042 0.0517645 0.0205437 -0.0236598 0.0524331 -0.0515073 -0.0440671 -0.0466169 -0.0499896 -0.0338482
internal_weight=13973.6 8362.67 6004.11 2358.56 5973.08 125.9 54.4862 5847.18 2349.37 432.198 418.855 394.283 31.035
internal_count=221264 155011 128263 26748 128037 1616 231 126421 26713 4610 4544 4409 226
is_linear=0
shrinkage=0.05


Tree=44
num_leaves=18
num_cat=0
split_feature=47 51 60 65 51 5 13 36 23 32 60 29 23 11 41 45 29
split_gain=7349.14 6726.77 88.1748 56.3364 48.3489 72.1126 12.4807 10.4957 35.0311 30.1971 24.4672 5.25647 3.39667 1.57371 2.47913 0.173493 3.87057
threshold=21.000000000000004 13.000000000000002 255.50000000000003 668.60824584960949 22.000000000000004 5.0714285373687753 815309.43750000012 1.0000000180025095e-35 6700.1862792968759 2983416.3750000005 22.500000000000004 6475.0583496093759 0.10255156084895135 34.000000000000007 729.50000000000011 620961.50000000012 5.030238389968873
decision_type=2 2 2 2 2 2 2 2 2 2 2 2 2 2 2 2 2
left_child=1 3 12 7 5 -4 -6 -1 9 10 -9 -7 -3 -13 -15 -12 -17
right_child=-2 2 4 -5 6 11 -8 8 -10 -11 15 13 -14 14 -16 16 -18
leaf_value=-0.052934869485122972 -0.053342055037546743 -0.016500438579603292 -0.029834771099875208 0.072219458877101447 0.052370539112117968 0.0039674953003677087 -0.02045008909045018 0.022643889518975231 0.034248236702088257 0.0084830713304571131 -0.053286752118857417 0.076858550124499672 -0.051092569065529017 0.013563087985280275 0.051733915394445829 -0.050855609611880626 -0.017543952112503688
leaf_weight=1830.3829723596573 5355.3061433658004 16.738829508423809 44.746992036700249 8.447727292776106 5570.7756865806878 6.0691665671765795 5.4069818854331961 10.811828620731829 13.255061089992521 23.360993579030037 291.33651485294104 8.7168637216091138 13.516376629471777 5.5117186158895484 56.641285412013531 66.906458079814911 11.590636573731897
leaf_count=22101 66253 98 193 33 126381 82 40 74 65 127 3439 37 128 86 1218 769 140
internal_value=-0.00803236 0.0223614 0.0511617 -0.0507517 0.0516148 0.020217 0.0522963 -0.0512458 -0.0437278 -0.0463643 -0.0497438 0.049336 -0.0330946 0.053112 0.0486173 -0.0519154 -0.0462195
internal_weight=13339.5 7984.22 5728.12 2256.09 5697.87 121.686 5576.18 2247.64 417.261 404.006 380.645 76.939 30.2552 70.8699 62.153 369.834 78.4971
internal_count=221264 155011 128263 26748 128037 1616 126421 26715 4614 4549 4422 1423 226 1341 1304 4348 909
is_linear=0
shrinkage=0.05


Tree=45
num_leaves=16
num_cat=0
split_feature=47 51 51 5 65 4 35 36 36 23 32 28 34 45 29
split_gain=6966.82 6374.21 77.466 82.3781 53.1124 41.7614 25.2757 19.5377 10.8062 33.2742 29.5364 24.3256 2.50721 0.0476108 3.9477
threshold=21.000000000000004 13.000000000000002 22.000000000000004 1349.640319824219 668.60824584960949 1.0000000180025095e-35 10.145568370819094 8.5000000000000018 1.0000000180025095e-35 6700.1862792968759 2689937.2500000005 1.0000000180025095e-35 3722.488159179688 620961.50000000012 5.030238389968873
decision_type=2 2 2 2 2 2 2 2 2 2 2 2 2 2 2
left_child=1 4 3 6 8 7 -3 -4 -1 10 11 13 -8 -10 -15
right_child=-2 2 5 -5 -6 -7 12 -9 9 -11 -12 -13 -14 14 -16
leaf_value=-0.052726033031840827 -0.053167493619810671 0.023866320984614983 0.05222602221511944 0.053544903813470358 0.068893100228945153 -0.053904504849056935 -0.03121319581186064 -0.045037966394202995 -0.053073543005667946 0.032084827128884226 0.0066773422203584209 0.022863663699676365 -0.056289537296370512 -0.051163920217727754 -0.017353721114096374
leaf_weight=1747.8402008078992 5110.4303400367498 19.410250976681709 5316.2794724293053 65.561601039022207 8.4606771767139417 8.5418452993035299 30.666813604533672 4.4559408612549296 278.33814957737923 13.502207458019255 24.764085836708546 10.735559090971945 20.293065771460533 62.761270679533482 11.537545599043368
leaf_count=22101 66253 98 126423 1386 33 64 142 35 3441 65 135 71 115 761 141
internal_value=-0.008003 0.0222775 0.0510051 0.0136137 -0.050468 0.0519561 -0.0238178 0.0521361 -0.0509696 -0.0432141 -0.0459092 -0.0495015 -0.0420902 -0.051763 -0.0462139
internal_weight=12733.6 7623.15 5465.21 135.932 2157.94 5329.28 70.3701 5320.74 2149.48 401.639 388.137 363.373 50.9599 352.637 74.2988
internal_count=221264 155011 128263 1741 26748 126522 355 126458 26715 4614 4549 4414 257 4343 902
is_linear=0
shrinkage=0.05


Tree=46
num_leaves=16
num_cat=0
split_feature=47 72 60 65 72 7 60 13 36 23 60 35 23 43 33
split_gain=6605.36 6041.1 80.4279 50.1353 47.3965 65.2183 58.9948 11.7084 11.1198 31.7493 26.683 27.1051 3.46986 1.29988 0.00574469
threshold=21.000000000000004 13.000000000000002 255.50000000000003 668.60824584960949 22.000000000000004 241.32361602783206 320.50000000000006 815309.43750000012 1.0000000180025095e-35 10389.680664062502 1.0000000180025095e-35 0.62031456828117382 0.10255156084895135 1.5000000000000002 556588.00000000012
decision_type=2 2 2 2 2 2 2 2 2 2 2 2 2 2 2
left_child=1 3 12 8 5 6 -4 -6 -1 10 -10 -12 -3 -13 -15
right_child=-2 2 4 -5 7 -7 -8 -9 9 -11 11 13 -14 14 -16
leaf_value=-0.052525602032131684 -0.053002479554745789 -0.014836553677096576 0.037090692616332264 0.065867152255666958 0.052121281157498547 0.053490941632135185 -0.067773214006368362 -0.019625170110162835 0.037163672082678609 0.037875991508714339 -0.0011085482409004868 -0.025660076782058613 -0.050467611322235463 -0.052219942635272756 -0.03742429258279583
leaf_weight=1668.7850320078433 4875.9469741731882 16.20398731529713 23.228748172521591 8.4529510736465436 5064.2322582751513 62.513758551329374 29.251695886254311 5.220107600092887 8.89968493580818 11.147510707378386 29.299276575446129 7.8180254548788062 12.592264905571936 317.7132852114737 11.781354226171969
leaf_count=22101 66253 98 107 33 126381 1385 124 40 55 53 173 91 128 4094 148
internal_value=-0.0079758 0.0221968 0.0508586 -0.05019 0.0513225 0.0193615 -0.021533 0.0520435 -0.0506991 -0.0427008 -0.0451871 -0.0472819 -0.0315884 -0.0512774 -0.0518057
internal_weight=12153.1 7277.14 5213.24 2063.9 5184.45 114.994 52.4804 5069.45 2055.44 386.659 375.512 366.612 28.7963 337.313 329.495
internal_count=221264 155011 128263 26748 128037 1616 231 126421 26715 4614 4561 4506 226 4333 4242
is_linear=0
shrinkage=0.05


Tree=47
num_leaves=19
num_cat=0
split_feature=47 51 60 65 51 5 36 23 32 60 13 29 23 11 41 29 33 29
split_gain=6263.7 5726.13 76.8883 47.3752 46.3308 61.9873 11.4529 30.4041 28.4662 28.0771 11.3704 4.73678 3.42865 0.970821 2.4396 0.147529 5.18634 0.0195243
threshold=21.000000000000004 13.000000000000002 255.50000000000003 668.60824584960949 22.000000000000004 5.0714285373687753 1.0000000180025095e-35 6700.1862792968759 2689937.2500000005 1.0000000180025095e-35 815309.43750000012 6475.0583496093759 0.10255156084895135 34.000000000000007 729.50000000000011 17.470262527465824 3967.0000000000005 59603.429687500007
decision_type=2 2 2 2 2 2 2 2 2 2 2 2 2 2 2 2 2 2
left_child=1 3 12 6 5 -4 17 8 9 -8 -6 -7 -3 -13 -15 16 -11 -1
right_child=-2 2 4 -5 10 11 7 -9 -10 15 -12 13 -14 14 -16 -17 -18 -19
leaf_value=-0.052809391643547213 -0.052846434384207268 -0.014280436193078429 -0.02754020668181166 0.063097312122025365 0.052005774689626243 0.0035242304050669112 0.03468331781959777 0.028782908332100045 0.0063877544988297126 -0.05206333473453062 -0.018834464654721508 0.073008664138287258 -0.050105716360230583 0.011929552804706561 0.051215864054810205 -0.052706541236251875 -0.015991961956429455 -0.048870759172120748
leaf_weight=1387.847060970962 4651.49670021981 16.036556810140613 43.027642756700516 8.4273072183132154 4827.6779778786004 5.5573457702994338 9.1248267740011197 13.879317909479139 24.850745894014835 55.318174988031387 5.2095537334680548 8.462872311472891 12.069513246417044 5.062020279467105 49.046129062771797 255.66888509690762 13.484760399907826 205.25120925158262
leaf_count=19372 66253 98 193 33 126381 82 55 65 135 755 40 37 128 86 1218 3451 153 2729
internal_value=-0.00794958 0.0221196 0.0507206 -0.0499158 0.0511905 0.0190531 -0.0504322 -0.0421811 -0.0450013 -0.0488371 0.0519255 0.0484527 -0.0308577 0.0523249 0.0478237 -0.0512852 -0.045324 -0.0523329
internal_weight=11597.5 6946 4972.15 1973.85 4944.04 111.156 1965.42 372.327 358.447 333.597 4832.89 68.1284 28.1061 62.571 54.1081 324.472 68.8029 1593.1
internal_count=221264 155011 128263 26748 128037 1616 26715 4614 4549 4414 126421 1423 226 1341 1304 4359 908 22101
is_linear=0
shrinkage=0.05


Tree=48
num_leaves=17
num_cat=0
split_feature=47 51 60 51 5 60 65 36 23 32 60 7 23 41 33 29
split_gain=5940.44 5427.59 73.5246 46.0055 59.0643 56.8849 44.8111 11.7687 28.9509 27.7975 26.9387 11.2801 3.38524 0.198217 7.86211 0.0915498
threshold=21.000000000000004 13.000000000000002 255.50000000000003 22.000000000000004 1349.640319824219 283.50000000000006 668.60824584960949 1.0000000180025095e-35 6700.1862792968759 2689937.2500000005 1.0000000180025095e-35 6.9285714626312265 0.10255156084895135 1214127.5000000002 156.50000000000003 59603.429687500007
decision_type=2 2 2 2 2 2 2 2 2 2 2 2 2 2 2 2
left_child=1 6 12 4 5 -4 7 15 9 10 -9 -5 -3 -12 -15 -1
right_child=-2 2 3 11 -6 -7 -8 8 -10 -11 13 -13 -14 14 -16 -17
leaf_value=-0.052650851663734899 -0.052698817576384054 -0.013741015732071454 0.038173981353566012 -0.024318108159574098 0.05308103875860945 -0.066146654683662279 0.060547442101796106 0.032422920219942065 0.027057937957340968 0.0060567927295479386 -0.052345536185655378 0.051889779684960835 -0.049750145098196114 -0.051755801437423789 0.0018111784113092413 -0.048511911769059862
leaf_weight=1324.0386869162321 4436.7241185158491 15.876213468611242 22.546902030706406 4.3240046463906756 57.296755589544773 28.550539180636406 8.3862147629260999 9.3369754552841169 14.084229379892347 24.950250342488289 255.3060199059546 4602.5871918685734 11.567837700247763 46.951246738433838 7.9142028912901869 196.65617813915014
leaf_count=19372 66253 98 104 44 1385 127 33 55 65 135 3604 126377 128 670 85 2729
internal_value=-0.0079235 0.0220414 0.0505784 0.0510544 0.0186359 -0.0202657 -0.049648 -0.0501717 -0.0416685 -0.0445488 -0.0485071 0.051813 -0.0301345 -0.0510397 -0.0441348 -0.0521478
internal_weight=11067.1 6630.37 4742.75 4715.31 108.394 51.0974 1887.62 1879.24 358.543 344.459 319.508 4606.91 27.4441 310.171 54.8654 1520.69
internal_count=221264 155011 128263 128037 1616 231 26748 26715 4614 4549 4414 126421 226 4359 755 22101
is_linear=0
shrinkage=0.05


Tree=49
num_leaves=17
num_cat=0
split_feature=47 51 51 5 60 65 4 60 36 23 32 60 33 41 33 29
split_gain=5634.64 5145.62 71.0205 66.4564 43.6383 42.4213 36.054 24.5689 12.0878 27.5876 27.1482 25.8839 9.0899 0.23993 7.73808 0.165812
threshold=21.000000000000004 13.000000000000002 22.000000000000004 1349.640319824219 256.50000000000006 668.60824584960949 1.0000000180025095e-35 245.50000000000003 1.0000000180025095e-35 6700.1862792968759 2689937.2500000005 1.0000000180025095e-35 71.500000000000014 1214127.5000000002 156.50000000000003 59603.429687500007
decision_type=2 2 2 2 2 2 2 2 2 2 2 2 2 2 2 2
left_child=1 5 3 4 12 8 7 -4 15 10 11 -10 -3 -13 -15 -1
right_child=-2 2 6 -5 -6 -7 -8 -9 9 -11 -12 13 -14 14 -16 -17
leaf_value=-0.052500145835719693 -0.052559121644352114 -0.0079775609458262644 -0.046875898008998815 0.052745269352615254 -0.064953283795973801 0.058187812017418628 -0.05255921556435187 0.051814836279789278 0.030355759378132282 0.025462730253647089 0.0057441679723910753 -0.05215681253317403 0.041126661743094421 -0.05156372658014155 0.0017284189353932126 -0.048152842292553358
leaf_weight=1262.9915170073509 4231.2787620648742 19.130525000393391 5.5902857035398474 54.769838038831949 29.813006535172462 8.3318804502487165 7.5560380071401587 4388.7282847091556 9.5369287282228452 14.275812059640883 25.044695124030113 243.7147477902472 17.074695490300655 44.827216722071171 7.9260549061000338 188.43234430998564
leaf_count=19372 66253 128 51 1386 137 33 64 126407 55 65 135 3604 90 670 85 2729
internal_value=-0.00789947 0.0219674 0.0504497 0.0125049 -0.0211681 -0.0493838 0.0514878 0.0516786 -0.0499147 -0.0411541 -0.0440948 -0.0481793 0.0156634 -0.0507992 -0.0436735 -0.0519693
internal_weight=10559 6327.74 4522.66 120.788 66.0182 1805.08 4401.87 4394.32 1796.75 345.325 331.05 306.005 36.2052 296.468 52.7533 1451.42
internal_count=221264 155011 128263 1741 355 26748 126522 126458 26715 4614 4549 4414 218 4359 755 22101
is_linear=0
shrinkage=0.05


Tree=50
num_leaves=17
num_cat=0
split_feature=47 51 51 7 65 4 35 36 36 23 32 28 52 45 45 33
split_gain=5345.23 4878.69 69.3933 62.832 40.1886 34.3788 21.8695 16.1095 12.4111 26.3051 26.5159 20.872 3.55728 1.03479 0.276692 5.28832
threshold=21.000000000000004 13.000000000000002 22.000000000000004 241.32361602783206 668.60824584960949 1.0000000180025095e-35 8.4464888572692889 8.5000000000000018 1.0000000180025095e-35 6700.1862792968759 2689937.2500000005 1.0000000180025095e-35 275.88500976562506 404.50000000000006 620961.50000000012 3967.0000000000005
decision_type=2 2 2 2 2 2 2 2 2 2 2 2 2 2 2 2
left_child=1 4 3 6 8 7 -3 13 -1 10 11 14 -8 -4 -10 -16
right_child=-2 2 5 -5 -6 -7 12 -9 9 -11 -12 -13 -14 -15 15 -17
