tree
version=v4
num_class=9
num_tree_per_iteration=9
label_index=0
max_feature_idx=116
objective=multiclass num_class:9
feature_names=Column_0 Column_1 Column_2 Column_3 Column_4 Column_5 Column_6 Column_7 Column_8 Column_9 Column_10 Column_11 Column_12 Column_13 Column_14 Column_15 Column_16 Column_17 Column_18 Column_19 Column_20 Column_21 Column_22 Column_23 Column_24 Column_25 Column_26 Column_27 Column_28 Column_29 Column_30 Column_31 Column_32 Column_33 Column_34 Column_35 Column_36 Column_37 Column_38 Column_39 Column_40 Column_41 Column_42 Column_43 Column_44 Column_45 Column_46 Column_47 Column_48 Column_49 Column_50 Column_51 Column_52 Column_53 Column_54 Column_55 Column_56 Column_57 Column_58 Column_59 Column_60 Column_61 Column_62 Column_63 Column_64 Column_65 Column_66 Column_67 Column_68 Column_69 Column_70 Column_71 Column_72 Column_73 Column_74 Column_75 Column_76 Column_77 Column_78 Column_79 Column_80 Column_81 Column_82 Column_83 Column_84 Column_85 Column_86 Column_87 Column_88 Column_89 Column_90 Column_91 Column_92 Column_93 Column_94 Column_95 Column_96 Column_97 Column_98 Column_99 Column_100 Column_101 Column_102 Column_103 Column_104 Column_105 Column_106 Column_107 Column_108 Column_109 Column_110 Column_111 Column_112 Column_113 Column_114 Column_115 Column_116
feature_infos=[0:1] [0:15586840] [0:15586840] [0:15586840] [0:9587555] [0:3877.333251953125] [0:3918] [0:2324.199951171875] none none none [0:110512] [0:120000000] [0:120000000] [0:120000000] [0:77800000] [0:120000000] none [0:11632] [0:3877.333251953125] [0:1983] [0:6715.73828125] [0:183700] [0:1000000] none [0:1] [0:7] none [0:1] [0:2944000000] [0:119993840] [0:120000000] [0:119000000] [-12:119000000] [0:82700000] [0:3000000] [0:5522] none none none [-17003503616:110472] [0:120000000] [0:120000000] [-8:120000000] [0:83400000] [0:120000000] [0:1] [0:23360] [0:3918] [0:1983] [0:4864.57666015625] [0:2866110] [0:3000000] [-1408237568:1480] none [0:120000000] [0:120000000] [0:120000000] [0:66500000] [-1:29200] [-1:65535] [0:1] [0:23360] [0:1936.8333740234375] [0:1472] [0:4731.5224609375] [0:22400000] [0:17] none [0:1] [0:183700] [0:5525] [0:2866110] [0:86666] [0:5525] [0:86666] [0:1] [0:1.3895829916000366] [0:59] [0:46] [0:65] [0:30] [0:4] [0:59] [0:60] [0:62] [0:63] [0:6] [1:4] [0:12838547] [0:52124.265625] [0:233038.421875] [0:22353024] [0:4829] [0:1470] [0:9660] [0:4294880512] [0:254] [0:59.999988555908203] [0:255] [0:4] [0:1] [0:1000000] [0:5242880] [0:10386256] [0:60003.96875] [0:1263193.125] [0:5600000000] [0:3951] [0:1501] [0:7908] [0:4294831616] [0:255] [0:255] [0:3.2267880439758301] [0:3.821465015411377] [0:5]
tree_sizes=2323 2521 1484 1896 2030 3692 1716 3242 3583

Tree=0
num_leaves=21
num_cat=0
split_feature=71 69 50 16 76 60 40 33 59 73 32 71 52 14 35 53 14 23 43 43
split_gain=142957 31402.3 11238 4006.99 1510.17 1334.59 265.751 101.005 16.4408 13.8264 8.87866 4.29121 18.3778 3.0367 17.8719 33.7028 2.09819 5.93844 0.273588 13.5017
threshold=14.500000000000002 1.0000000180025095e-35 9.7752518653869647 16007029.500000002 1.0000000180025095e-35 257.50000000000006 779.00000000000011 57.500000000000007 232.00000000000003 39.500000000000007 215.58333587646487 10.500000000000002 0.29860259592533117 398.00000000000006 314.74996948242193 28.500000000000004 808.50000000000011 1.398804306983948 14000.500000000002 996170.50000000012
decision_type=2 2 2 2 2 2 2 2 2 2 2 2 2 2 2 2 2 2 2 2
left_child=1 4 10 6 11 8 -2 -7 -6 -5 -3 13 -13 18 16 -16 17 -15 -1 -20
right_child=3 2 -4 9 5 7 -8 -9 -10 -11 -12 12 -14 14 15 -17 -18 -19 19 -21
leaf_value=-3.2441138339710629 -2.1139491695180688 -3.1709172513612427 -2.1375291127853364 -3.1246877606395382 -3.1461558745684868 -2.8227783316155941 -2.6993764459998566 -2.4307941652643956 -3.2403090767483231 -3.2362241492888555 -3.2425790151246807 -3.242402983179677 -3.1494126505188067 -3.2417375840437752 -3.2394863583484863 -3.0861862680708168 -3.2435604453574118 -3.1919999065585256 -3.1790652450482946 -3.2437927139572542
leaf_weight=9070.0691704116762 301.40559250861406 4.4078033417463329 87.098194032907486 4.4078033417463285 6.6117050126194981 6.3472368121147147 4.4078033417463294 8.1544361822307092 10.887274254113434 4.8045056425035 27.460614819079638 24.683698713779453 5.8183004111051551 17.763447467237715 8.8156066834926587 4.6722715422511092 147.96995818242431 8.5070604495704156 8.1544361822307092 110.81217601150274
leaf_count=205773 6838 100 1976 100 150 144 100 185 247 109 623 560 132 403 200 106 3357 193 185 2514
internal_value=-3.19787 -3.23246 -2.42859 -2.15159 -3.24267 -2.90493 -2.12073 -2.5671 -3.20386 -3.18092 -3.23215 -3.24385 -3.22369 -3.24391 -3.23681 -3.18234 -3.24109 -3.22601 -3.24406 -3.23924
internal_weight=9873.26 9558.23 118.967 315.026 9439.27 32.0007 305.813 14.5017 17.499 9.21231 31.8684 9407.27 30.502 9376.76 187.728 13.4879 174.24 26.2705 9189.04 118.967
internal_count=223995 216848 2699 7147 214149 726 6938 329 397 209 723 213423 692 212731 4259 306 3953 596 208472 2699
is_linear=0
shrinkage=1


Tree=1
num_leaves=23
num_cat=0
split_feature=59 59 33 45 88 63 23 23 53 59 70 6 30 60 44 40 40 52 43 33 14 14
split_gain=147451 23066 10507 3162.94 1489.74 9005.94 1140 685.382 228.756 212.666 322.619 102.48 42.3995 22.7296 21.2767 17.7359 18.3287 14.9908 9.25541 4.1278 14.004 30.6241
threshold=232.00000000000003 240.00000000000003 1033.5000000000002 100500000.00000001 1.5000000000000002 2.0909091234207158 0.11492310464382173 0.1272360906004906 28.500000000000004 235.50000000000003 3097.0000000000005 113.6904754638672 124.50000000000001 265.00000000000006 7773.5783691406259 61.000000000000007 29.000000000000004 129.68907165527347 46550000.000000007 86.500000000000014 983.00000000000011 14749.500000000002
decision_type=2 2 2 2 2 2 2 2 2 2 2 2 2 2 2 2 2 2 2 2 2 2
left_child=2 9 3 4 5 6 14 -3 -5 12 -11 -9 -2 17 -1 16 -7 -4 -17 -14 -21 -22
right_child=1 7 13 8 -6 15 -8 11 -10 10 -12 -13 19 -15 -16 18 -18 -19 -20 20 21 -23
leaf_value=-1.0664955166687049 -1.1326508429986606 -1.0673521822818464 -1.1227117441078507 -1.2086706691960196 -1.2752037844366662 -1.2737915603388374 -1.2743603699417727 -1.2748195804804758 -1.0633638205818807 -1.2731865972420258 -1.0685102737238878 -1.199163128213008 -1.0627590403000309 -1.0628563161819808 -1.1182250869462718 -1.2750808881841273 -1.2277240895347843 -1.0691044815088007 -1.2433556249629989 -1.0641563555448308 -1.14819672681322 -1.0690060738173388
leaf_weight=665.77721507847309 25.398777544498444 40.920252710580826 39.744383379817009 31.513298064470291 31125.96670691669 43.742339104413986 73.844593971967697 1457.3724485486746 193.78326570987701 30.337428733706474 49.62168575823307 45.858903899788857 13894.542360037565 575.23527660965919 27.750516206026077 4107.546746224165 43.507165238261223 29.631907135248184 26.104299142956734 94.775068059563637 24.693255946040154 30.102254867553711
leaf_count=2831 108 174 169 134 132353 186 314 6197 824 129 211 195 59082 2446 118 17466 185 126 111 403 105 128
internal_value=-1.21193 -1.08352 -1.26642 -1.26997 -1.27114 -1.24576 -1.0883 -1.26698 -1.08358 -1.06349 -1.14596 -1.2725 -1.06303 -1.06647 -1.06843 -1.27441 -1.25126 -1.09811 -1.27489 -1.06291 -1.07754 -1.10291
internal_weight=52677.8 15693.6 36984.1 36339.5 36114.2 4988.27 767.372 1544.15 225.297 14149.5 79.9591 1503.23 14069.5 644.612 693.528 4220.9 87.2495 69.3763 4133.65 14044.1 149.571 54.7955
internal_count=223995 66732 157263 154522 153564 21211 3263 6566 958 60166 340 6392 59826 2741 2949 17948 371 295 17577 59718 636 233
is_linear=0
shrinkage=1


Tree=2
num_leaves=13
num_cat=0
split_feature=64 64 64 49 47 29 53 73 64 49 6 64
split_gain=149580 5114.42 56.8548 31.7799 9.00978 3.7752 3.42314 3.40646 2.54936 21.2904 0.61821 1.80841
threshold=1293.0000000000002 991.00000000000011 717.00000000000011 757.50000000000011 847.50000000000011 1347000000.0000002 1225.5000000000002 104.50000000000001 518.50000000000011 525.50000000000011 544.50000000000011 539.50000000000011
decision_type=2 2 2 2 2 2 2 2 2 2 2 2
left_child=1 2 6 -4 -5 -6 7 8 -1 -10 11 -11
right_child=-2 -3 3 4 5 -7 -8 -9 9 10 -12 -13
leaf_value=-4.8112759390489295 -0.33049780596513312 -3.3756088674393507 -4.5313437205230453 -4.8007421407444815 -4.768993638107581 -4.6673970059852756 -4.7378566341527169 -4.7382098031723645 -4.6516687772339207 -4.7999337759811151 -4.809491498757942 -4.7405901517038913
leaf_weight=2065.62074674014 17.834158345125616 5.2297079553827635 1.4806432686746109 3.1890778094530106 1.2338693905621769 2.088086660951376 0.96811290644109149 0.97760420944541593 1.4711519656702901 2.8948474163189561 21.97236645501107 1.0440433304756878
leaf_count=217633 1879 551 156 336 130 220 102 103 155 305 2315 110
internal_value=-4.76662 -4.80623 -4.81045 -4.68412 -4.74556 -4.69695 -4.81097 -4.81102 -4.81106 -4.79401 -4.80606 -4.78212
internal_weight=2126 2108.17 2102.94 7.99168 6.51103 3.32196 2094.95 2093.98 2093 27.3824 25.9113 3.93889
internal_count=223995 222116 221565 842 686 350 220723 220621 220518 2885 2730 415
is_linear=0
shrinkage=1


Tree=3
num_leaves=17
num_cat=0
split_feature=64 51 7 64 53 53 63 45 40 51 40 49 49 53 47 73
split_gain=148492 27729.6 1017.49 485.421 415.955 482.537 313.623 267.783 365.094 76.4122 42.7479 3.21515 9.38019 2.84637 0.935529 0.774723
threshold=401.50000000000006 2542.5000000000005 592.02084350585949 389.50000000000006 880.50000000000011 401.50000000000006 991.95834350585949 32.500000000000007 65.000000000000014 2815.0000000000005 61.000000000000007 1444.0000000000002 425.50000000000006 80.500000000000014 1426.5000000000002 104.50000000000001
decision_type=2 2 2 2 2 2 2 2 2 2 2 2 2 2 2 2
left_child=3 2 -2 15 5 7 -4 8 9 -3 -5 12 -9 -10 -6 -1
right_child=1 4 6 10 14 -7 -8 11 13 -11 -12 -13 -14 -15 -16 -17
leaf_value=-3.3150296523845242 -2.9790697872743008 -2.8031095440524014 -2.1693668176062468 -3.1168118967326182 -3.2835622533169135 -2.6354056658946257 -2.497565196079047 -3.3082693133868926 -3.2602085126374942 -3.0411553835149783 -2.9087687384127574 -3.3103091427992468 -3.2188743858241748 -3.3080575510873538 -3.3104303666101518 -3.2871633398570643
leaf_weight=8750.8617646843195 4.9412910640239707 7.7825334258377596 340.53730916231871 10.582598362118004 5.2295330427587023 4.3648071065545073 18.200422085821629 5.8060170002281684 5.3118878938257676 12.312050234526396 4.2824522554874411 8.7296142131090146 4.1589199788868427 5.6001298725605011 30.594827171415091 4.241274829953908
leaf_count=212516 120 189 8270 257 127 106 442 141 129 299 104 212 101 136 743 103
internal_value=-3.26886 -2.3877 -2.19381 -3.31452 -3.17537 -3.08903 -2.18383 -3.14058 -3.05273 -2.93125 -3.03796 -3.28986 -3.2698 -3.28599 -3.30701 -3.31502
internal_weight=9223.54 453.569 363.679 8769.97 89.8903 54.066 358.738 49.7012 31.0066 20.0946 14.8651 18.6946 9.96494 10.912 35.8244 8755.1
internal_count=223995 11015 8832 212980 2183 1313 8712 1207 753 488 361 454 242 265 870 212619
is_linear=0
shrinkage=1


Tree=4
num_leaves=18
num_cat=0
split_feature=30 70 6 51 36 36 60 60 15 70 51 52 52 62 62 35 40
split_gain=153037 21685.6 6437.78 1679.66 6644.7 1799.79 5596.05 546.139 34.7749 44.5086 6.4058 268.024 4.84705 354.409 22.2543 4.54511 3.64149
threshold=1.0000000180025095e-35 11598.000000000002 12.722222328186037 30.500000000000004 3.5000000000000004 2.5000000000000004 265.00000000000006 254.00000000000003 1.0000000180025095e-35 19.000000000000004 37.000000000000007 0.47717025876045233 38.789007186889656 235.00000000000003 346.50000000000006 9.5117921829223651 29.000000000000004
decision_type=2 2 2 2 2 2 2 2 2 2 2 2 2 2 2 2 2
left_child=-1 3 -3 4 5 8 7 -7 16 -10 11 -5 -12 -14 -15 -6 -2
right_child=1 2 -4 10 15 6 -8 -9 9 -11 12 -13 13 14 -16 -17 -18
leaf_value=-1.0626087033206044 -1.2593322199580459 -1.06268409936442 -1.2747345217960013 -1.27507082825173 -1.0630518212069686 -1.2733143491083376 -1.2750669122001388 -1.0629111640819935 -1.1828926709325198 -1.2731713292882423 -1.275183695332988 -1.1450757191070069 -1.1255293101907173 -1.2337947177652004 -1.2750776225550429 -1.1002348346644906 -1.2749020687682324
leaf_weight=12942.323375985026 53.384467616677284 1716.7692229151726 451.53382301330566 1208.5584981590509 437.42339104413986 32.453993529081345 1174.4582875669003 474.58086189627647 23.517386615276337 30.102254867553711 25461.333792895079 40.214731112122536 39.509209513664246 34.335384458303452 3222.8226617574692 24.222908213734627 5310.2258977293968
leaf_count=55033 227 7300 1920 5139 1860 138 4994 2018 100 128 108266 171 168 146 13704 103 22580
internal_value=-1.21193 -1.26057 -1.10685 -1.26944 -1.24837 -1.26033 -1.21514 -1.07647 -1.27435 -1.23377 -1.27475 -1.27083 -1.27492 -1.27284 -1.27465 -1.06476 -1.27476
internal_weight=52677.8 39735.4 2168.3 37567.1 7560.37 7098.72 1681.49 507.035 5417.23 53.6196 30006.8 1248.77 28758 3296.67 3257.16 461.646 5363.61
internal_count=223995 168962 9220 159742 32148 30185 7150 2156 23035 228 127594 5310 122284 14018 13850 1963 22807
is_linear=0
shrinkage=1


Tree=5
num_leaves=34
num_cat=0
split_feature=59 59 23 14 63 23 6 61 60 6 33 40 40 60 26 44 43 23 14 14 23 31 43 2 59 33 6 33 43 33 14 59 14
split_gain=39322.7 8560.05 31156.8 4799.04 14828.4 2559.86 20910.2 21063.7 225.585 1011.14 78.1897 174.169 473.385 209.219 68.9238 1151.08 44.5497 22.5158 13.7415 22.345 15.4565 7.6633 5.64069 5.24877 1.8457 1.5238 0.956197 0.751289 0.702588 0.846229 0.297357 0.235792 0.123035
threshold=29080.000000000004 22676.500000000004 202.48772430419925 820806.00000000012 3.6749999523162846 141.64707946777347 4.1428570747375497 1.0000000180025095e-35 29080.000000000004 99.171428680419936 80.500000000000014 129.00000000000003 169.00000000000003 254.00000000000003 1.5000000000000002 20893.161132812504 250.50000000000003 0.19919613748788836 885.50000000000011 2191.0000000000005 0.33570739626884466 18021.000000000004 195.50000000000003 2103.0000000000005 240.00000000000003 50.500000000000007 12.722222328186037 82.500000000000014 967.50000000000011 68.500000000000014 808.50000000000011 256.50000000000006 846.50000000000011
decision_type=2 2 2 2 2 2 2 2 2 2 2 2 2 2 2 2 2 2 2 2 2 2 2 2 2 2 2 2 2 2 2 2 2
left_child=1 3 17 5 -5 10 7 24 26 -10 14 23 13 -13 18 -16 -15 28 30 20 -20 -14 -21 -12 -7 -26 -8 -27 29 -3 31 -1 -32
right_child=-2 2 -4 4 -6 6 8 -9 9 -11 11 12 21 16 15 -17 -18 -19 19 22 -22 -23 -24 -25 25 27 -28 -29 -30 -31 32 -33 -34
leaf_value=-4.7854557057049858 -0.60157451760064173 -4.7382117225759357 -0.55581219851110042 -1.0686783746346875 -4.7817010234923689 -4.773743122141977 -4.7851181529975024 -0.58701743443044307 -3.5215880633601166 -4.7805789596730266 -4.7844410641352759 -3.9106430917827391 -4.6810995471228409 -4.7688575154214377 -4.7844038164991032 -3.6499681245568754 -4.4335302284532139 -4.6113108641718981 -4.7648827775899294 -4.6878119879300408 -4.5647929424133453 -4.7817425771276261 -4.7815568878094199 -4.7034552529350231 -4.7629541969416413 -4.6868474965346305 -4.7384407927712626 -4.7397699792311041 -4.7397699792311041 -4.7830472414528282 -4.7422153884251701 -4.7580236417338915 -4.763808426537345
leaf_weight=1901.3141968799755 4.7229756740853182 1.0030236998573077 4.6255947323516002 2.5903330501168957 10.624260743148623 2.7948330277577025 100.90613182447851 5.3462137011811137 0.97380941733717818 8.0047134105116111 39.137400482781231 1.9086664579808719 1.3438569959253062 1.6846902919933202 37.842233957722783 1.3730712784454215 0.97380941733717907 1.2659522425383318 1.1685713008046144 0.99328560568392177 1.6944283861666916 10.750855967402458 10.205522693693636 1.3730712784454215 0.98354751151055131 0.97380941733717952 1.0127617940306652 1.0711903590708969 1.071190359070896 16.856641014106572 1.1880474891513577 2.4442616375163189 1.0614522648975253
leaf_count=195245 485 103 475 266 1091 287 10362 549 100 822 4019 196 138 173 3886 141 100 130 120 102 174 1104 1048 141 101 100 104 110 110 1731 122 251 109
internal_value=-4.74072 -4.7516 -3.84665 -4.76245 -3.84675 -4.76852 -4.54711 -2.57966 -4.76282 -4.53554 -4.78202 -4.72462 -4.59335 -4.21169 -4.7837 -4.71855 -4.59563 -4.76221 -4.78504 -4.73611 -4.63158 -4.76686 -4.76959 -4.78086 -4.74968 -4.72478 -4.78464 -4.70515 -4.77829 -4.78053 -4.7854 -4.78543 -4.75637
internal_weight=2181.28 2176.56 24.8224 2151.74 13.2146 2138.52 122.067 11.1696 110.897 8.97852 2016.46 57.1724 16.6619 4.56717 1959.29 39.2153 2.6585 20.1968 1920.07 14.0618 2.863 12.0947 11.1988 40.5105 5.82338 3.02855 101.919 2.045 18.9309 17.8597 1906.01 1903.76 2.2495
internal_count=223995 223510 2549 220961 1357 219604 12535 1147 11388 922 207069 5871 1711 469 201198 4027 273 2074 197171 1444 294 1242 1150 4160 598 311 10466 210 1944 1834 195727 195496 231
is_linear=0
shrinkage=1


Tree=6
num_leaves=15
num_cat=0
split_feature=20 58 88 88 60 61 25 35 29 64 49 49 49 64
split_gain=145898 12672 11352 4849.35 3192.87 19910.8 606.368 2.27676 13.9591 4.56568 1.69918 1.70449 0.677912 0.925779
threshold=4.0000000000000009 1.0000000180025095e-35 1.5000000000000002 1.5000000000000002 2180.0000000000005 1.0000000180025095e-35 1.0000000180025095e-35 98780.488281250015 468500000.00000006 504.50000000000006 442.50000000000006 432.50000000000006 400.50000000000006 4.0000000000000009
decision_type=2 2 2 2 2 2 2 2 2 2 2 2 2 2
left_child=1 4 -3 -2 6 -6 7 -1 9 10 11 12 13 -9
right_child=3 2 -4 -5 5 -7 -8 8 -10 -11 -12 -13 -14 -15
leaf_value=-1.5799016633459753 -1.5796024404861464 -1.5798348346031188 -1.3195026682848132 -1.3193590022635786 -1.3196415378536539 -1.579898770159172 -1.3385223269558386 -1.5707290406353609 -1.5794219881606673 -1.5417453057426078 -1.578583845878192 -1.5491201761106226 -1.5723229815518813 -1.5572170332621953
leaf_weight=26488.941628709435 182.98793122172356 741.73409856855869 959.63167704641819 7495.2163526415825 876.76921762526035 4513.8941147178411 25.127273574471474 32.416101023554802 1443.3796461671591 20.140181109309196 41.814852207899094 20.331992357969284 65.791258290410042 56.584318354725838
leaf_count=138099 954 3867 5003 39076 4571 23533 131 169 7525 105 218 106 343 295
internal_value=-1.52307 -1.56606 -1.43296 -1.32557 -1.5728 -1.53754 -1.57954 -1.57976 -1.57753 -1.56581 -1.56795 -1.56511 -1.56703 -1.56261
internal_weight=42964.8 35286.6 1701.37 7678.2 33585.2 5390.66 28194.5 28169.4 1680.46 237.079 216.939 175.124 154.792 89.0004
internal_count=223995 183965 8870 40030 175095 28104 146991 146860 8761 1236 1131 913 807 464
is_linear=0
shrinkage=1


Tree=7
num_leaves=30
num_cat=0
split_feature=64 7 6 51 7 51 40 49 40 49 30 53 33 32 47 51 30 49 7 49 47 40 29 40 49 7 7 29 47
split_gain=119141 71028.8 1748.48 619.673 157.143 232.705 117.293 75.1897 41.4293 40.6791 36.4589 30.3386 19.2739 26.83 14.7774 26.5347 11.2866 6.93484 10.5717 5.60643 4.77989 7.01441 2.71941 2.10902 1.55528 0.792112 1.8375 0.506545 0.404551
threshold=231.00000000000003 592.02084350585949 401.50000000000006 731.00000000000011 766.51470947265636 956.50000000000011 779.00000000000011 488.50000000000006 105.00000000000001 421.50000000000006 43.500000000000007 1.0000000180025095e-35 15.500000000000002 1.1000000238418581 416.50000000000006 883.00000000000011 2.5000000000000004 543.50000000000011 796.03332519531261 459.50000000000006 419.50000000000006 1.0000000180025095e-35 915000000.00000012 -21.999999999999996 459.50000000000006 877.14285278320324 854.46429443359386 807000000.00000012 429.50000000000006
decision_type=2 2 2 2 2 2 2 2 2 2 2 2 2 2 2 2 2 2 2 2 2 2 2 2 2 2 2 2 2
left_child=-1 3 16 -2 5 8 7 -7 10 -5 11 23 13 -9 -13 28 -3 18 -6 -17 21 -12 -20 -4 -22 26 -19 -25 -16
right_child=1 2 4 9 17 6 -8 12 -10 -11 20 14 -14 -15 15 19 -18 25 22 -21 24 -23 -24 27 -26 -27 -28 -29 -30
leaf_value=-2.5615572394328989 -2.3023012283791555 -2.2452662492135658 -2.5537052231670456 -1.9656738950159047 -2.5566965515908753 -2.3314654426241606 -2.5586285321876132 -2.4734321642935653 -2.5611287781293068 -2.1351153870707953 -2.5572140986713117 -2.4385575619788051 -2.5056040987128343 -2.3709339919005314 -2.5316384261557339 -2.4885014780839345 -2.0902209938694893 -2.5579011590532144 -2.4958583290399052 -2.4429587172174432 -2.5574204201274164 -2.5057923210560253 -2.52965466093994 -2.5184517729470532 -2.5358712597835646 -2.561470637194124 -2.5364494958286579 -2.5332559451303371 -2.5510987886300041
leaf_weight=16354.323214709759 15.577460199594496 10.217473894357683 11.473720684647558 1452.8912878632545 39.529899001121521 20.937446504831314 15.32621084153652 15.996209129691126 103.68223509192467 13.064966619014738 10.049974322319033 15.242461055517195 11.473720684647558 11.054971754550932 8.9612271040678042 16.079958915710453 16.498707845807076 52.762365192174911 10.384973466396332 13.316215977072714 46.564881026744843 15.996209129691122 11.47372068464756 10.552473038434984 14.488712981343268 401.5802239626646 16.833706989884377 14.823712125420569 8.3749786019325239
leaf_count=195276 186 122 137 17348 472 250 183 191 1238 156 120 182 137 132 107 192 197 630 124 159 556 191 137 126 173 4795 201 177 100
internal_value=-2.51323 -2.18473 -2.52888 -1.97031 -2.54093 -2.51562 -2.43758 -2.40615 -2.53596 -1.96693 -2.52174 -2.501 -2.45031 -2.42796 -2.47984 -2.49458 -2.13771 -2.55822 -2.54158 -2.46624 -2.54515 -2.52653 -2.51354 -2.53653 -2.55275 -2.56032 -2.55311 -2.52753 -2.54259
internal_weight=18759.5 2405.21 923.676 1481.53 896.96 364.395 74.7886 59.4623 289.607 1465.96 185.925 98.8247 38.5249 27.0512 61.9748 46.7324 26.7162 532.565 61.3886 29.3962 87.0998 26.0462 21.8587 36.8499 61.0536 471.176 69.5961 25.3762 17.3362
internal_count=223995 28719 11029 17690 10710 4351 893 710 3458 17504 2220 1180 460 323 740 558 319 6359 733 351 1040 311 261 440 729 5626 831 303 207
is_linear=0
shrinkage=1


Tree=8
num_leaves=33
num_cat=0
split_feature=33 11 7 22 76 34 50 33 7 31 50 50 57 45 33 50 14 33 60 43 60 33 33 43 43 43 43 29 43 43 45 45
split_gain=32366.3 73929.7 40695.2 3960.32 1625.43 1195.1 950.889 358.225 2035.25 101.366 74.7152 68.2331 83.9213 15.2029 65.8213 8.89113 24.5431 6.63261 22.5228 31.4075 0.89893 4.41289 8.94794 3.87279 0.831154 5.90085 0.35064 0.281543 0.180436 0.221393 0.170019 0.232772
threshold=88.500000000000014 36.000000000000007 1.0000000180025095e-35 12361.500000000002 1.0000000180025095e-35 39.612705230712898 178.67115783691409 66.500000000000014 1.0000000180025095e-35 112.50000000000001 189.3969421386719 248.60185241699222 6104572.5000000009 661.50000000000011 247.50000000000003 216.61728668212893 846.50000000000011 52.500000000000007 29080.000000000004 569.50000000000011 29080.000000000004 32.500000000000007 38.500000000000007 410.50000000000006 410.50000000000006 911.50000000000011 3.5000000000000004 30.981954574584964 1047.5000000000002 2532.0000000000005 970.50000000000011 795.50000000000011
decision_type=2 2 2 2 2 2 2 2 2 2 2 2 2 2 2 2 2 2 2 2 2 2 2 2 2 2 2 2 2 2 2 2
left_child=3 9 -3 4 7 -6 -4 11 -9 -2 -10 15 -13 14 -11 17 26 20 -19 -20 -1 28 23 -23 -24 -26 -17 -7 -22 -30 31 -15
right_child=1 2 6 -5 5 27 -8 8 10 13 -12 12 -14 30 -16 16 -18 18 19 -21 21 22 24 -25 25 -27 -28 -29 29 -31 -32 -33
leaf_value=-4.6942451135004024 -4.3873860418554376 -0.36451430523142125 -4.6892361796949649 -2.5261926760013536 -3.3145931089318776 -4.6486052571828793 -3.5054479847775957 -3.2326488472139951 -4.6922138603013801 -4.6900206663310238 -4.408863047106335 -4.2633732068129344 -4.6815272604737919 -4.6758124481055852 -4.4209653072671884 -4.6557310091518804 -4.4981860738845203 -4.6916904003914315 -4.6822570050109888 -4.4501735252838053 -4.6924422666209935 -4.6567079983479864 -4.6900032694092566 -4.5604992555417265 -4.5972878140715911 -4.6875963504242497 -4.6879683702678019 -4.6780257827694003 -4.6483695311993403 -4.6749640702042932 -4.6934071313525916 -4.6486052571828793
leaf_weight=2076.7905266601592 2.0787200052291146 18.815081072971228 7.8778158146888 1.1193107720464457 2.7289862632751456 1.0766703616827729 1.1406309772282837 1.8015573378652359 20.605978308245543 9.5088115110993368 1.6096754912286986 1.076670361682772 2.5157842114567757 1.4284537471830836 1.9081583637744177 1.4604340549558381 1.2685522083193062 16.256656451150779 2.7289862632751456 1.6416557990014551 131.47104525379837 1.5243946705013542 9.4661711007356661 1.5776951834559438 1.5243946705013502 5.7031548861414194 6.0975786820054054 1.758916927501559 1.0660102590918534 1.3218527212738989 49.782679099589586 1.0766703616827726
leaf_count=194819 195 1765 739 105 256 101 107 169 1933 892 151 101 236 134 179 137 119 1525 256 154 12333 143 888 148 143 535 572 165 100 124 4670 101
internal_value=-4.64942 -3.74314 -1.63206 -4.68678 -4.68876 -3.90294 -4.44027 -4.69099 -4.50263 -4.66816 -4.66221 -4.69306 -4.49943 -4.68123 -4.63028 -4.69343 -4.64393 -4.69363 -4.66447 -4.57422 -4.69389 -4.68883 -4.66569 -4.59803 -4.68045 -4.66453 -4.6832 -4.66956 -4.6921 -4.66629 -4.69251 -4.66722
internal_weight=2387.81 93.617 27.8335 2294.19 2293.07 5.56457 9.01845 2287.51 24.0172 65.7835 22.2157 2263.49 3.59245 63.7048 11.417 2259.9 8.82656 2251.07 20.6273 4.37064 2230.45 153.655 19.7958 3.10209 16.6937 7.22755 7.55801 2.83559 133.859 2.38786 52.2878 2.50512
internal_count=223995 8782 2611 215213 215108 522 846 214586 2253 6171 2084 212333 337 5976 1071 211996 828 211168 1935 410 209233 14414 1857 291 1566 678 709 266 12557 224 4905 235
is_linear=0
shrinkage=1


end of trees

feature_importances:
Column_33=14
Column_43=13
Column_40=12
Column_49=12
Column_14=10
Column_64=10
Column_60=9
Column_7=8
Column_59=8
Column_6=7
Column_23=7
Column_51=7
Column_53=7
Column_29=5
Column_45=5
Column_47=5
Column_50=5
Column_30=4
Column_52=4
Column_35=3
Column_63=3
Column_70=3
Column_73=3
Column_88=3
Column_31=2
Column_32=2
Column_36=2
Column_44=2
Column_61=2
Column_62=2
Column_71=2
Column_76=2
Column_2=1
Column_11=1
Column_15=1
Column_16=1
Column_20=1
Column_22=1
Column_25=1
Column_26=1
Column_34=1
Column_57=1
Column_58=1
Column_69=1

parameters:
[boosting: gbdt]
[objective: multiclass]
[metric: multi_logloss]
[tree_learner: serial]
[device_type: cpu]
[data_sample_strategy: bagging]
[data: ]
[valid: ]
[num_iterations: 1600]
[learning_rate: 0.05]
[num_leaves: 128]
[num_threads: -1]
[seed: 42]
[deterministic: 0]
[force_col_wise: 0]
[force_row_wise: 0]
[histogram_pool_size: -1]
[max_depth: -1]
[min_data_in_leaf: 100]
[min_sum_hessian_in_leaf: 0.001]
[bagging_fraction: 0.9]
[pos_bagging_fraction: 1]
[neg_bagging_fraction: 1]
[bagging_freq: 0]
[bagging_seed: 400]
[bagging_by_query: 0]
[feature_fraction: 0.9]
[feature_fraction_bynode: 1]
[feature_fraction_seed: 30056]
[extra_trees: 0]
[extra_seed: 12879]
[early_stopping_round: 0]
[early_stopping_min_delta: 0]
[first_metric_only: 0]
[max_delta_step: 0]
[lambda_l1: 0]
[lambda_l2: 1]
[linear_lambda: 0]
[min_gain_to_split: 0]
[drop_rate: 0.1]
[max_drop: 50]
[skip_drop: 0.5]
[xgboost_dart_mode: 0]
[uniform_drop: 0]
[drop_seed: 17869]
[top_rate: 0.2]
[other_rate: 0.1]
[min_data_per_group: 100]
[max_cat_threshold: 32]
[cat_l2: 10]
[cat_smooth: 10]
[max_cat_to_onehot: 4]
[top_k: 20]
[monotone_constraints: ]
[monotone_constraints_method: basic]
[monotone_penalty: 0]
[feature_contri: ]
[forcedsplits_filename: ]
[refit_decay_rate: 0.9]
[cegb_tradeoff: 1]
[cegb_penalty_split: 0]
[cegb_penalty_feature_lazy: ]
[cegb_penalty_feature_coupled: ]
[path_smooth: 0]
[interaction_constraints: ]
[verbosity: 1]
[saved_feature_importance_type: 0]
[use_quantized_grad: 0]
[num_grad_quant_bins: 4]
[quant_train_renew_leaf: 0]
[stochastic_rounding: 1]
[linear_tree: 0]
[max_bin: 127]
[max_bin_by_feature: ]
[min_data_in_bin: 3]
[bin_construct_sample_cnt: 200000]
[data_random_seed: 175]
[is_enable_sparse: 1]
[enable_bundle: 1]
[use_missing: 1]
[zero_as_missing: 0]
[feature_pre_filter: 1]
[pre_partition: 0]
[two_round: 0]
[header: 0]
[label_column: ]
[weight_column: ]
[group_column: ]
[ignore_column: ]
[categorical_feature: ]
[forcedbins_filename: ]
[precise_float_parser: 0]
[parser_config_file: ]
[objective_seed: 16083]
[num_class: 9]
[is_unbalance: 0]
[scale_pos_weight: 1]
[sigmoid: 1]
[boost_from_average: 1]
[reg_sqrt: 0]
[alpha: 0.9]
[fair_c: 1]
[poisson_max_delta_step: 0.7]
[tweedie_variance_power: 1.5]
[lambdarank_truncation_level: 30]
[lambdarank_norm: 1]
[label_gain: ]
[lambdarank_position_bias_regularization: 0]
[eval_at: ]
[multi_error_top_k: 1]
[auc_mu_weights: ]
[num_machines: 1]
[local_listen_port: 12400]
[time_out: 120]
[machine_list_filename: ]
[machines: ]
[gpu_platform_id: -1]
[gpu_device_id: -1]
[gpu_use_dp: 0]
[num_gpu: 1]

end of parameters

pandas_categorical:null
